digraph Tree {
node [shape=box] ;
0 [label="NMHC_measured <= 1073.0\nmse = 47.98\nsamples = 2125\nvalue = 9.059"] ;
1 [label="NMHC_measured <= 823.5\nmse = 10.814\nsamples = 1623\nvalue = 6.001"] ;
0 -> 1 [labeldistance=2.5, labelangle=45, headlabel="True"] ;
2 [label="NMHC_measured <= 679.5\nmse = 2.584\nsamples = 909\nvalue = 3.413"] ;
1 -> 2 ;
3 [label="NMHC_measured <= 580.5\nmse = 0.718\nsamples = 459\nvalue = 2.071"] ;
2 -> 3 ;
4 [label="NMHC_measured <= 514.5\nmse = 0.225\nsamples = 192\nvalue = 1.227"] ;
3 -> 4 ;
5 [label="NMHC_measured <= 461.0\nmse = 0.066\nsamples = 77\nvalue = 0.738"] ;
4 -> 5 ;
6 [label="NMHC_measured <= 435.5\nmse = 0.021\nsamples = 27\nvalue = 0.434"] ;
5 -> 6 ;
7 [label="temp <= 3.35\nmse = 0.007\nsamples = 11\nvalue = 0.289"] ;
6 -> 7 ;
8 [label="mse = 0.0\nsamples = 3\nvalue = 0.2"] ;
7 -> 8 ;
9 [label="NMHC_measured <= 421.0\nmse = 0.002\nsamples = 8\nvalue = 0.345"] ;
7 -> 9 ;
10 [label="mse = 0.0\nsamples = 4\nvalue = 0.3"] ;
9 -> 10 ;
11 [label="mse = 0.0\nsamples = 4\nvalue = 0.4"] ;
9 -> 11 ;
12 [label="NMHC_measured <= 450.0\nmse = 0.002\nsamples = 16\nvalue = 0.548"] ;
6 -> 12 ;
13 [label="mse = 0.0\nsamples = 8\nvalue = 0.5"] ;
12 -> 13 ;
14 [label="mse = 0.0\nsamples = 8\nvalue = 0.6"] ;
12 -> 14 ;
15 [label="NMHC_measured <= 483.5\nmse = 0.021\nsamples = 50\nvalue = 0.887"] ;
5 -> 15 ;
16 [label="NMHC_measured <= 474.5\nmse = 0.002\nsamples = 21\nvalue = 0.747"] ;
15 -> 16 ;
17 [label="mse = 0.0\nsamples = 13\nvalue = 0.7"] ;
16 -> 17 ;
18 [label="mse = -0.0\nsamples = 8\nvalue = 0.8"] ;
16 -> 18 ;
19 [label="NMHC_measured <= 504.5\nmse = 0.006\nsamples = 29\nvalue = 1.002"] ;
15 -> 19 ;
20 [label="NMHC_measured <= 494.5\nmse = 0.002\nsamples = 19\nvalue = 0.955"] ;
19 -> 20 ;
21 [label="NOx_measured <= 1170.5\nmse = 0.001\nsamples = 11\nvalue = 0.907"] ;
20 -> 21 ;
22 [label="mse = 0.0\nsamples = 1\nvalue = 1.0"] ;
21 -> 22 ;
23 [label="mse = -0.0\nsamples = 10\nvalue = 0.9"] ;
21 -> 23 ;
24 [label="mse = -0.0\nsamples = 8\nvalue = 1.0"] ;
20 -> 24 ;
25 [label="mse = -0.0\nsamples = 10\nvalue = 1.1"] ;
19 -> 25 ;
26 [label="NMHC_measured <= 548.5\nmse = 0.054\nsamples = 115\nvalue = 1.567"] ;
4 -> 26 ;
27 [label="NMHC_measured <= 532.5\nmse = 0.012\nsamples = 56\nvalue = 1.363"] ;
26 -> 27 ;
28 [label="NMHC_measured <= 523.0\nmse = 0.002\nsamples = 27\nvalue = 1.264"] ;
27 -> 28 ;
29 [label="mse = 0.0\nsamples = 12\nvalue = 1.2"] ;
28 -> 29 ;
30 [label="mse = -0.0\nsamples = 15\nvalue = 1.3"] ;
28 -> 30 ;
31 [label="NMHC_measured <= 540.0\nmse = 0.002\nsamples = 29\nvalue = 1.46"] ;
27 -> 31 ;
32 [label="mse = -0.0\nsamples = 13\nvalue = 1.4"] ;
31 -> 32 ;
33 [label="mse = 0.0\nsamples = 16\nvalue = 1.5"] ;
31 -> 33 ;
34 [label="NMHC_measured <= 564.0\nmse = 0.014\nsamples = 59\nvalue = 1.766"] ;
26 -> 34 ;
35 [label="NMHC_measured <= 557.0\nmse = 0.002\nsamples = 28\nvalue = 1.631"] ;
34 -> 35 ;
36 [label="mse = 0.0\nsamples = 18\nvalue = 1.6"] ;
35 -> 36 ;
37 [label="mse = -0.0\nsamples = 10\nvalue = 1.7"] ;
35 -> 37 ;
38 [label="NMHC_measured <= 572.5\nmse = 0.002\nsamples = 31\nvalue = 1.855"] ;
34 -> 38 ;
39 [label="mse = 0.0\nsamples = 15\nvalue = 1.8"] ;
38 -> 39 ;
40 [label="mse = -0.0\nsamples = 16\nvalue = 1.9"] ;
38 -> 40 ;
41 [label="NMHC_measured <= 629.5\nmse = 0.182\nsamples = 267\nvalue = 2.686"] ;
3 -> 41 ;
42 [label="NMHC_measured <= 602.5\nmse = 0.041\nsamples = 117\nvalue = 2.281"] ;
41 -> 42 ;
43 [label="NMHC_measured <= 595.5\nmse = 0.01\nsamples = 56\nvalue = 2.105"] ;
42 -> 43 ;
44 [label="NMHC_measured <= 587.5\nmse = 0.002\nsamples = 36\nvalue = 2.03"] ;
43 -> 44 ;
45 [label="mse = -0.0\nsamples = 23\nvalue = 2.0"] ;
44 -> 45 ;
46 [label="mse = 0.0\nsamples = 13\nvalue = 2.1"] ;
44 -> 46 ;
47 [label="AH <= 1.102\nmse = 0.001\nsamples = 20\nvalue = 2.213"] ;
43 -> 47 ;
48 [label="NMHC_measured <= 601.5\nmse = 0.0\nsamples = 18\nvalue = 2.203"] ;
47 -> 48 ;
49 [label="mse = -0.0\nsamples = 16\nvalue = 2.2"] ;
48 -> 49 ;
50 [label="NOx_measured <= 1049.5\nmse = 0.002\nsamples = 2\nvalue = 2.225"] ;
48 -> 50 ;
51 [label="mse = 0.0\nsamples = 1\nvalue = 2.3"] ;
50 -> 51 ;
52 [label="mse = 0.0\nsamples = 1\nvalue = 2.2"] ;
50 -> 52 ;
53 [label="mse = -0.0\nsamples = 2\nvalue = 2.3"] ;
47 -> 53 ;
54 [label="NMHC_measured <= 615.5\nmse = 0.011\nsamples = 61\nvalue = 2.455"] ;
42 -> 54 ;
55 [label="NMHC_measured <= 609.5\nmse = 0.002\nsamples = 25\nvalue = 2.351"] ;
54 -> 55 ;
56 [label="O3_measured <= 889.5\nmse = 0.001\nsamples = 13\nvalue = 2.309"] ;
55 -> 56 ;
57 [label="mse = 0.0\nsamples = 12\nvalue = 2.3"] ;
56 -> 57 ;
58 [label="mse = 0.0\nsamples = 1\nvalue = 2.4"] ;
56 -> 58 ;
59 [label="mse = -0.0\nsamples = 12\nvalue = 2.4"] ;
55 -> 59 ;
60 [label="NMHC_measured <= 623.5\nmse = 0.003\nsamples = 36\nvalue = 2.533"] ;
54 -> 60 ;
61 [label="temp <= 2.55\nmse = 0.001\nsamples = 24\nvalue = 2.5"] ;
60 -> 61 ;
62 [label="mse = 0.0\nsamples = 1\nvalue = 2.6"] ;
61 -> 62 ;
63 [label="NMHC_measured <= 616.5\nmse = 0.0\nsamples = 23\nvalue = 2.497"] ;
61 -> 63 ;
64 [label="NOx_measured <= 989.5\nmse = 0.002\nsamples = 2\nvalue = 2.467"] ;
63 -> 64 ;
65 [label="mse = 0.0\nsamples = 1\nvalue = 2.5"] ;
64 -> 65 ;
66 [label="mse = -0.0\nsamples = 1\nvalue = 2.4"] ;
64 -> 66 ;
67 [label="mse = 0.0\nsamples = 21\nvalue = 2.5"] ;
63 -> 67 ;
68 [label="mse = 0.0\nsamples = 12\nvalue = 2.6"] ;
60 -> 68 ;
69 [label="NMHC_measured <= 654.5\nmse = 0.048\nsamples = 150\nvalue = 3.025"] ;
41 -> 69 ;
70 [label="NMHC_measured <= 642.5\nmse = 0.012\nsamples = 78\nvalue = 2.845"] ;
69 -> 70 ;
71 [label="NMHC_measured <= 636.5\nmse = 0.003\nsamples = 40\nvalue = 2.756"] ;
70 -> 71 ;
72 [label="NO2_measured <= 820.0\nmse = 0.0\nsamples = 17\nvalue = 2.696"] ;
71 -> 72 ;
73 [label="NMHC_measured <= 631.5\nmse = 0.002\nsamples = 2\nvalue = 2.667"] ;
72 -> 73 ;
74 [label="mse = 0.0\nsamples = 1\nvalue = 2.6"] ;
73 -> 74 ;
75 [label="mse = 0.0\nsamples = 1\nvalue = 2.7"] ;
73 -> 75 ;
76 [label="mse = -0.0\nsamples = 15\nvalue = 2.7"] ;
72 -> 76 ;
77 [label="mse = -0.0\nsamples = 23\nvalue = 2.8"] ;
71 -> 77 ;
78 [label="NMHC_measured <= 648.5\nmse = 0.002\nsamples = 38\nvalue = 2.949"] ;
70 -> 78 ;
79 [label="mse = -0.0\nsamples = 18\nvalue = 2.9"] ;
78 -> 79 ;
80 [label="NMHC_measured <= 649.5\nmse = 0.001\nsamples = 20\nvalue = 2.987"] ;
78 -> 80 ;
81 [label="CO_measured <= 912.0\nmse = 0.002\nsamples = 7\nvalue = 2.96"] ;
80 -> 81 ;
82 [label="mse = 0.0\nsamples = 3\nvalue = 3.0"] ;
81 -> 82 ;
83 [label="O3_measured <= 738.5\nmse = 0.002\nsamples = 4\nvalue = 2.92"] ;
81 -> 83 ;
84 [label="mse = 0.0\nsamples = 3\nvalue = 2.9"] ;
83 -> 84 ;
85 [label="mse = 0.0\nsamples = 1\nvalue = 3.0"] ;
83 -> 85 ;
86 [label="mse = -0.0\nsamples = 13\nvalue = 3.0"] ;
80 -> 86 ;
87 [label="NMHC_measured <= 667.5\nmse = 0.013\nsamples = 72\nvalue = 3.22"] ;
69 -> 87 ;
88 [label="NMHC_measured <= 661.5\nmse = 0.002\nsamples = 39\nvalue = 3.133"] ;
87 -> 88 ;
89 [label="mse = -0.0\nsamples = 24\nvalue = 3.1"] ;
88 -> 89 ;
90 [label="mse = 0.0\nsamples = 15\nvalue = 3.2"] ;
88 -> 90 ;
91 [label="NMHC_measured <= 673.5\nmse = 0.002\nsamples = 33\nvalue = 3.344"] ;
87 -> 91 ;
92 [label="mse = 0.0\nsamples = 19\nvalue = 3.3"] ;
91 -> 92 ;
93 [label="mse = -0.0\nsamples = 14\nvalue = 3.4"] ;
91 -> 93 ;
94 [label="NMHC_measured <= 750.5\nmse = 0.683\nsamples = 450\nvalue = 4.817"] ;
2 -> 94 ;
95 [label="NMHC_measured <= 713.5\nmse = 0.134\nsamples = 215\nvalue = 4.05"] ;
94 -> 95 ;
96 [label="NMHC_measured <= 696.5\nmse = 0.026\nsamples = 106\nvalue = 3.74"] ;
95 -> 96 ;
97 [label="NMHC_measured <= 685.5\nmse = 0.006\nsamples = 51\nvalue = 3.589"] ;
96 -> 97 ;
98 [label="mse = 0.0\nsamples = 19\nvalue = 3.5"] ;
97 -> 98 ;
99 [label="NMHC_measured <= 692.0\nmse = 0.002\nsamples = 32\nvalue = 3.636"] ;
97 -> 99 ;
100 [label="NMHC_measured <= 690.5\nmse = 0.001\nsamples = 23\nvalue = 3.611"] ;
99 -> 100 ;
101 [label="mse = 0.0\nsamples = 19\nvalue = 3.6"] ;
100 -> 101 ;
102 [label="RH <= 68.35\nmse = 0.002\nsamples = 4\nvalue = 3.64"] ;
100 -> 102 ;
103 [label="mse = 0.0\nsamples = 2\nvalue = 3.7"] ;
102 -> 103 ;
104 [label="mse = -0.0\nsamples = 2\nvalue = 3.6"] ;
102 -> 104 ;
105 [label="mse = 0.0\nsamples = 9\nvalue = 3.7"] ;
99 -> 105 ;
106 [label="NMHC_measured <= 702.5\nmse = 0.006\nsamples = 55\nvalue = 3.875"] ;
96 -> 106 ;
107 [label="mse = 0.0\nsamples = 22\nvalue = 3.8"] ;
106 -> 107 ;
108 [label="NMHC_measured <= 708.5\nmse = 0.002\nsamples = 33\nvalue = 3.936"] ;
106 -> 108 ;
109 [label="temp <= 17.6\nmse = 0.0\nsamples = 19\nvalue = 3.903"] ;
108 -> 109 ;
110 [label="mse = -0.0\nsamples = 18\nvalue = 3.9"] ;
109 -> 110 ;
111 [label="mse = -0.0\nsamples = 1\nvalue = 4.0"] ;
109 -> 111 ;
112 [label="mse = 0.0\nsamples = 14\nvalue = 4.0"] ;
108 -> 112 ;
113 [label="NMHC_measured <= 730.5\nmse = 0.031\nsamples = 109\nvalue = 4.389"] ;
95 -> 113 ;
114 [label="NMHC_measured <= 724.5\nmse = 0.006\nsamples = 48\nvalue = 4.223"] ;
113 -> 114 ;
115 [label="NMHC_measured <= 718.5\nmse = 0.002\nsamples = 26\nvalue = 4.158"] ;
114 -> 115 ;
116 [label="mse = 0.0\nsamples = 12\nvalue = 4.1"] ;
115 -> 116 ;
117 [label="mse = 0.0\nsamples = 14\nvalue = 4.2"] ;
115 -> 117 ;
118 [label="mse = -0.0\nsamples = 22\nvalue = 4.3"] ;
114 -> 118 ;
119 [label="NMHC_measured <= 740.5\nmse = 0.011\nsamples = 61\nvalue = 4.523"] ;
113 -> 119 ;
120 [label="NMHC_measured <= 734.5\nmse = 0.002\nsamples = 38\nvalue = 4.452"] ;
119 -> 120 ;
121 [label="mse = 0.0\nsamples = 17\nvalue = 4.4"] ;
120 -> 121 ;
122 [label="temp <= 3.2\nmse = 0.001\nsamples = 21\nvalue = 4.493"] ;
120 -> 122 ;
123 [label="temp <= 2.85\nmse = 0.002\nsamples = 2\nvalue = 4.433"] ;
122 -> 123 ;
124 [label="mse = 0.0\nsamples = 1\nvalue = 4.5"] ;
123 -> 124 ;
125 [label="mse = 0.0\nsamples = 1\nvalue = 4.4"] ;
123 -> 125 ;
126 [label="mse = -0.0\nsamples = 19\nvalue = 4.5"] ;
122 -> 126 ;
127 [label="NMHC_measured <= 745.0\nmse = 0.002\nsamples = 23\nvalue = 4.639"] ;
119 -> 127 ;
128 [label="mse = 0.0\nsamples = 14\nvalue = 4.6"] ;
127 -> 128 ;
129 [label="mse = -0.0\nsamples = 9\nvalue = 4.7"] ;
127 -> 129 ;
130 [label="NMHC_measured <= 790.5\nmse = 0.164\nsamples = 235\nvalue = 5.512"] ;
94 -> 130 ;
131 [label="NMHC_measured <= 770.5\nmse = 0.049\nsamples = 129\nvalue = 5.207"] ;
130 -> 131 ;
132 [label="NMHC_measured <= 760.5\nmse = 0.011\nsamples = 48\nvalue = 4.954"] ;
131 -> 132 ;
133 [label="NMHC_measured <= 756.5\nmse = 0.002\nsamples = 23\nvalue = 4.857"] ;
132 -> 133 ;
134 [label="mse = 0.0\nsamples = 11\nvalue = 4.8"] ;
133 -> 134 ;
135 [label="mse = -0.0\nsamples = 12\nvalue = 4.9"] ;
133 -> 135 ;
136 [label="NMHC_measured <= 766.5\nmse = 0.003\nsamples = 25\nvalue = 5.041"] ;
132 -> 136 ;
137 [label="RH <= 29.55\nmse = 0.001\nsamples = 14\nvalue = 4.995"] ;
136 -> 137 ;
138 [label="temp <= 13.7\nmse = 0.002\nsamples = 3\nvalue = 4.933"] ;
137 -> 138 ;
139 [label="mse = 0.0\nsamples = 2\nvalue = 4.9"] ;
138 -> 139 ;
140 [label="mse = 0.0\nsamples = 1\nvalue = 5.0"] ;
138 -> 140 ;
141 [label="RH <= 74.45\nmse = 0.0\nsamples = 11\nvalue = 5.005"] ;
137 -> 141 ;
142 [label="mse = 0.0\nsamples = 10\nvalue = 5.0"] ;
141 -> 142 ;
143 [label="mse = 0.0\nsamples = 1\nvalue = 5.1"] ;
141 -> 143 ;
144 [label="mse = 0.0\nsamples = 11\nvalue = 5.1"] ;
136 -> 144 ;
145 [label="NMHC_measured <= 781.5\nmse = 0.013\nsamples = 81\nvalue = 5.352"] ;
131 -> 145 ;
146 [label="NMHC_measured <= 776.5\nmse = 0.004\nsamples = 42\nvalue = 5.258"] ;
145 -> 146 ;
147 [label="RH <= 36.25\nmse = 0.002\nsamples = 21\nvalue = 5.197"] ;
146 -> 147 ;
148 [label="RH <= 31.4\nmse = 0.002\nsamples = 2\nvalue = 5.133"] ;
147 -> 148 ;
149 [label="mse = 0.0\nsamples = 1\nvalue = 5.2"] ;
148 -> 149 ;
150 [label="mse = 0.0\nsamples = 1\nvalue = 5.1"] ;
148 -> 150 ;
151 [label="NMHC_measured <= 775.5\nmse = 0.001\nsamples = 19\nvalue = 5.204"] ;
147 -> 151 ;
152 [label="NOx_measured <= 782.5\nmse = 0.0\nsamples = 15\nvalue = 5.195"] ;
151 -> 152 ;
153 [label="O3_measured <= 1098.5\nmse = 0.002\nsamples = 4\nvalue = 5.175"] ;
152 -> 153 ;
154 [label="mse = -0.0\nsamples = 3\nvalue = 5.2"] ;
153 -> 154 ;
155 [label="mse = -0.0\nsamples = 1\nvalue = 5.1"] ;
153 -> 155 ;
156 [label="mse = -0.0\nsamples = 11\nvalue = 5.2"] ;
152 -> 156 ;
157 [label="NOx_measured <= 835.5\nmse = 0.002\nsamples = 4\nvalue = 5.24"] ;
151 -> 157 ;
158 [label="mse = 0.0\nsamples = 2\nvalue = 5.2"] ;
157 -> 158 ;
159 [label="mse = -0.0\nsamples = 2\nvalue = 5.3"] ;
157 -> 159 ;
160 [label="CO_measured <= 1131.0\nmse = 0.0\nsamples = 21\nvalue = 5.305"] ;
146 -> 160 ;
161 [label="mse = -0.0\nsamples = 20\nvalue = 5.3"] ;
160 -> 161 ;
162 [label="mse = -0.0\nsamples = 1\nvalue = 5.4"] ;
160 -> 162 ;
163 [label="NMHC_measured <= 785.5\nmse = 0.002\nsamples = 39\nvalue = 5.46"] ;
145 -> 163 ;
164 [label="mse = -0.0\nsamples = 17\nvalue = 5.4"] ;
163 -> 164 ;
165 [label="NOx_measured <= 982.5\nmse = 0.0\nsamples = 22\nvalue = 5.495"] ;
163 -> 165 ;
166 [label="mse = 0.0\nsamples = 20\nvalue = 5.5"] ;
165 -> 166 ;
167 [label="O3_measured <= 847.0\nmse = 0.002\nsamples = 2\nvalue = 5.433"] ;
165 -> 167 ;
168 [label="mse = 0.0\nsamples = 1\nvalue = 5.5"] ;
167 -> 168 ;
169 [label="mse = 0.0\nsamples = 1\nvalue = 5.4"] ;
167 -> 169 ;
170 [label="NMHC_measured <= 805.5\nmse = 0.043\nsamples = 106\nvalue = 5.898"] ;
130 -> 170 ;
171 [label="NMHC_measured <= 795.5\nmse = 0.008\nsamples = 46\nvalue = 5.703"] ;
170 -> 171 ;
172 [label="mse = 0.0\nsamples = 17\nvalue = 5.6"] ;
171 -> 172 ;
173 [label="NMHC_measured <= 800.5\nmse = 0.003\nsamples = 29\nvalue = 5.757"] ;
171 -> 173 ;
174 [label="CO_measured <= 1137.5\nmse = 0.001\nsamples = 14\nvalue = 5.708"] ;
173 -> 174 ;
175 [label="mse = 0.0\nsamples = 11\nvalue = 5.7"] ;
174 -> 175 ;
176 [label="RH <= 59.1\nmse = 0.002\nsamples = 3\nvalue = 5.767"] ;
174 -> 176 ;
177 [label="mse = -0.0\nsamples = 2\nvalue = 5.8"] ;
176 -> 177 ;
178 [label="mse = 0.0\nsamples = 1\nvalue = 5.7"] ;
176 -> 178 ;
179 [label="RH <= 70.9\nmse = 0.001\nsamples = 15\nvalue = 5.808"] ;
173 -> 179 ;
180 [label="NMHC_measured <= 804.5\nmse = 0.0\nsamples = 14\nvalue = 5.804"] ;
179 -> 180 ;
181 [label="mse = 0.0\nsamples = 11\nvalue = 5.8"] ;
180 -> 181 ;
182 [label="NO2_measured <= 1095.5\nmse = 0.002\nsamples = 3\nvalue = 5.833"] ;
180 -> 182 ;
183 [label="mse = 0.0\nsamples = 2\nvalue = 5.8"] ;
182 -> 183 ;
184 [label="mse = 0.0\nsamples = 1\nvalue = 5.9"] ;
182 -> 184 ;
185 [label="mse = -0.0\nsamples = 1\nvalue = 5.9"] ;
179 -> 185 ;
186 [label="NMHC_measured <= 814.5\nmse = 0.011\nsamples = 60\nvalue = 6.071"] ;
170 -> 186 ;
187 [label="NMHC_measured <= 809.5\nmse = 0.002\nsamples = 28\nvalue = 5.972"] ;
186 -> 187 ;
188 [label="mse = 0.0\nsamples = 9\nvalue = 5.9"] ;
187 -> 188 ;
189 [label="mse = -0.0\nsamples = 19\nvalue = 6.0"] ;
187 -> 189 ;
190 [label="NMHC_measured <= 818.5\nmse = 0.002\nsamples = 32\nvalue = 6.154"] ;
186 -> 190 ;
191 [label="mse = 0.0\nsamples = 14\nvalue = 6.1"] ;
190 -> 191 ;
192 [label="RH <= 79.8\nmse = 0.0\nsamples = 18\nvalue = 6.196"] ;
190 -> 192 ;
193 [label="mse = 0.0\nsamples = 17\nvalue = 6.2"] ;
192 -> 193 ;
194 [label="mse = -0.0\nsamples = 1\nvalue = 6.1"] ;
192 -> 194 ;
195 [label="NMHC_measured <= 937.0\nmse = 2.861\nsamples = 714\nvalue = 9.133"] ;
1 -> 195 ;
196 [label="NMHC_measured <= 884.5\nmse = 0.592\nsamples = 303\nvalue = 7.508"] ;
195 -> 196 ;
197 [label="NMHC_measured <= 855.5\nmse = 0.184\nsamples = 177\nvalue = 6.965"] ;
196 -> 197 ;
198 [label="NMHC_measured <= 841.5\nmse = 0.041\nsamples = 87\nvalue = 6.581"] ;
197 -> 198 ;
199 [label="NMHC_measured <= 833.0\nmse = 0.012\nsamples = 51\nvalue = 6.448"] ;
198 -> 199 ;
200 [label="NMHC_measured <= 828.5\nmse = 0.002\nsamples = 28\nvalue = 6.363"] ;
199 -> 200 ;
201 [label="RH <= 82.6\nmse = 0.001\nsamples = 12\nvalue = 6.316"] ;
200 -> 201 ;
202 [label="O3_measured <= 1048.5\nmse = 0.0\nsamples = 11\nvalue = 6.305"] ;
201 -> 202 ;
203 [label="mse = 0.0\nsamples = 10\nvalue = 6.3"] ;
202 -> 203 ;
204 [label="mse = -0.0\nsamples = 1\nvalue = 6.4"] ;
202 -> 204 ;
205 [label="mse = 0.0\nsamples = 1\nvalue = 6.4"] ;
201 -> 205 ;
206 [label="mse = -0.0\nsamples = 16\nvalue = 6.4"] ;
200 -> 206 ;
207 [label="NMHC_measured <= 836.5\nmse = 0.002\nsamples = 23\nvalue = 6.566"] ;
199 -> 207 ;
208 [label="mse = 0.0\nsamples = 8\nvalue = 6.5"] ;
207 -> 208 ;
209 [label="O3_measured <= 1186.5\nmse = 0.001\nsamples = 15\nvalue = 6.593"] ;
207 -> 209 ;
210 [label="mse = 0.0\nsamples = 13\nvalue = 6.6"] ;
209 -> 210 ;
211 [label="O3_measured <= 1341.0\nmse = 0.002\nsamples = 2\nvalue = 6.55"] ;
209 -> 211 ;
212 [label="mse = 0.0\nsamples = 1\nvalue = 6.5"] ;
211 -> 212 ;
213 [label="mse = 0.0\nsamples = 1\nvalue = 6.6"] ;
211 -> 213 ;
214 [label="NMHC_measured <= 850.5\nmse = 0.008\nsamples = 36\nvalue = 6.811"] ;
198 -> 214 ;
215 [label="NMHC_measured <= 845.5\nmse = 0.002\nsamples = 22\nvalue = 6.751"] ;
214 -> 215 ;
216 [label="mse = -0.0\nsamples = 8\nvalue = 6.7"] ;
215 -> 216 ;
217 [label="O3_measured <= 792.5\nmse = 0.0\nsamples = 14\nvalue = 6.795"] ;
215 -> 217 ;
218 [label="mse = 0.0\nsamples = 1\nvalue = 6.7"] ;
217 -> 218 ;
219 [label="mse = 0.0\nsamples = 13\nvalue = 6.8"] ;
217 -> 219 ;
220 [label="NO2_measured <= 940.0\nmse = 0.001\nsamples = 14\nvalue = 6.91"] ;
214 -> 220 ;
221 [label="mse = 0.0\nsamples = 1\nvalue = 7.0"] ;
220 -> 221 ;
222 [label="O3_measured <= 885.0\nmse = 0.0\nsamples = 13\nvalue = 6.905"] ;
220 -> 222 ;
223 [label="mse = 0.0\nsamples = 1\nvalue = 7.0"] ;
222 -> 223 ;
224 [label="mse = 0.0\nsamples = 12\nvalue = 6.9"] ;
222 -> 224 ;
225 [label="NMHC_measured <= 867.5\nmse = 0.041\nsamples = 90\nvalue = 7.337"] ;
197 -> 225 ;
226 [label="NMHC_measured <= 859.5\nmse = 0.007\nsamples = 36\nvalue = 7.087"] ;
225 -> 226 ;
227 [label="mse = 0.0\nsamples = 15\nvalue = 7.0"] ;
226 -> 227 ;
228 [label="NMHC_measured <= 863.5\nmse = 0.002\nsamples = 21\nvalue = 7.153"] ;
226 -> 228 ;
229 [label="mse = 0.0\nsamples = 11\nvalue = 7.1"] ;
228 -> 229 ;
230 [label="mse = 0.0\nsamples = 10\nvalue = 7.2"] ;
228 -> 230 ;
231 [label="NMHC_measured <= 876.5\nmse = 0.011\nsamples = 54\nvalue = 7.463"] ;
225 -> 231 ;
232 [label="NMHC_measured <= 871.5\nmse = 0.003\nsamples = 24\nvalue = 7.365"] ;
231 -> 232 ;
233 [label="mse = 0.0\nsamples = 11\nvalue = 7.3"] ;
232 -> 233 ;
234 [label="NMHC_measured <= 875.5\nmse = 0.001\nsamples = 13\nvalue = 7.407"] ;
232 -> 234 ;
235 [label="mse = -0.0\nsamples = 10\nvalue = 7.4"] ;
234 -> 235 ;
236 [label="RH <= 66.7\nmse = 0.002\nsamples = 3\nvalue = 7.433"] ;
234 -> 236 ;
237 [label="mse = 0.0\nsamples = 1\nvalue = 7.5"] ;
236 -> 237 ;
238 [label="mse = 0.0\nsamples = 2\nvalue = 7.4"] ;
236 -> 238 ;
239 [label="NMHC_measured <= 880.5\nmse = 0.002\nsamples = 30\nvalue = 7.546"] ;
231 -> 239 ;
240 [label="mse = 0.0\nsamples = 15\nvalue = 7.5"] ;
239 -> 240 ;
241 [label="mse = 0.0\nsamples = 15\nvalue = 7.6"] ;
239 -> 241 ;
242 [label="NMHC_measured <= 909.5\nmse = 0.123\nsamples = 126\nvalue = 8.305"] ;
196 -> 242 ;
243 [label="NMHC_measured <= 897.5\nmse = 0.032\nsamples = 56\nvalue = 7.964"] ;
242 -> 243 ;
244 [label="NMHC_measured <= 893.0\nmse = 0.007\nsamples = 27\nvalue = 7.795"] ;
243 -> 244 ;
245 [label="NMHC_measured <= 888.5\nmse = 0.002\nsamples = 18\nvalue = 7.745"] ;
244 -> 245 ;
246 [label="mse = -0.0\nsamples = 9\nvalue = 7.7"] ;
245 -> 246 ;
247 [label="CO_measured <= 1186.5\nmse = 0.001\nsamples = 9\nvalue = 7.793"] ;
245 -> 247 ;
248 [label="mse = 0.0\nsamples = 8\nvalue = 7.8"] ;
247 -> 248 ;
249 [label="mse = -0.0\nsamples = 1\nvalue = 7.7"] ;
247 -> 249 ;
250 [label="mse = 0.0\nsamples = 9\nvalue = 7.9"] ;
244 -> 250 ;
251 [label="NMHC_measured <= 905.5\nmse = 0.005\nsamples = 29\nvalue = 8.115"] ;
243 -> 251 ;
252 [label="NMHC_measured <= 901.5\nmse = 0.002\nsamples = 19\nvalue = 8.068"] ;
251 -> 252 ;
253 [label="NOx_measured <= 713.5\nmse = 0.001\nsamples = 7\nvalue = 8.009"] ;
252 -> 253 ;
254 [label="O3_measured <= 1030.0\nmse = 0.002\nsamples = 2\nvalue = 8.05"] ;
253 -> 254 ;
255 [label="mse = 0.0\nsamples = 1\nvalue = 8.0"] ;
254 -> 255 ;
256 [label="mse = -0.0\nsamples = 1\nvalue = 8.1"] ;
254 -> 256 ;
257 [label="mse = 0.0\nsamples = 5\nvalue = 8.0"] ;
253 -> 257 ;
258 [label="mse = 0.0\nsamples = 12\nvalue = 8.1"] ;
252 -> 258 ;
259 [label="mse = 0.0\nsamples = 10\nvalue = 8.2"] ;
251 -> 259 ;
260 [label="NMHC_measured <= 921.5\nmse = 0.038\nsamples = 70\nvalue = 8.561"] ;
242 -> 260 ;
261 [label="NMHC_measured <= 913.5\nmse = 0.005\nsamples = 33\nvalue = 8.387"] ;
260 -> 261 ;
262 [label="mse = 0.0\nsamples = 10\nvalue = 8.3"] ;
261 -> 262 ;
263 [label="NMHC_measured <= 917.5\nmse = 0.002\nsamples = 23\nvalue = 8.433"] ;
261 -> 263 ;
264 [label="mse = 0.0\nsamples = 15\nvalue = 8.4"] ;
263 -> 264 ;
265 [label="RH <= 31.75\nmse = 0.001\nsamples = 8\nvalue = 8.493"] ;
263 -> 265 ;
266 [label="NOx_measured <= 725.0\nmse = 0.002\nsamples = 3\nvalue = 8.467"] ;
265 -> 266 ;
267 [label="mse = 0.0\nsamples = 1\nvalue = 8.4"] ;
266 -> 267 ;
268 [label="mse = 0.0\nsamples = 2\nvalue = 8.5"] ;
266 -> 268 ;
269 [label="mse = 0.0\nsamples = 5\nvalue = 8.5"] ;
265 -> 269 ;
270 [label="NMHC_measured <= 929.5\nmse = 0.011\nsamples = 37\nvalue = 8.733"] ;
260 -> 270 ;
271 [label="NMHC_measured <= 925.5\nmse = 0.002\nsamples = 20\nvalue = 8.65"] ;
270 -> 271 ;
272 [label="mse = 0.0\nsamples = 9\nvalue = 8.6"] ;
271 -> 272 ;
273 [label="CO_measured <= 1250.5\nmse = 0.001\nsamples = 11\nvalue = 8.689"] ;
271 -> 273 ;
274 [label="NO2_measured <= 1319.5\nmse = 0.001\nsamples = 10\nvalue = 8.694"] ;
273 -> 274 ;
275 [label="mse = 0.0\nsamples = 8\nvalue = 8.7"] ;
274 -> 275 ;
276 [label="CO_measured <= 1156.5\nmse = 0.002\nsamples = 2\nvalue = 8.667"] ;
274 -> 276 ;
277 [label="mse = 0.0\nsamples = 1\nvalue = 8.6"] ;
276 -> 277 ;
278 [label="mse = 0.0\nsamples = 1\nvalue = 8.7"] ;
276 -> 278 ;
279 [label="mse = 0.0\nsamples = 1\nvalue = 8.6"] ;
273 -> 279 ;
280 [label="NMHC_measured <= 933.5\nmse = 0.002\nsamples = 17\nvalue = 8.837"] ;
270 -> 280 ;
281 [label="mse = 0.0\nsamples = 10\nvalue = 8.8"] ;
280 -> 281 ;
282 [label="mse = -0.0\nsamples = 7\nvalue = 8.9"] ;
280 -> 282 ;
283 [label="NMHC_measured <= 1005.5\nmse = 0.836\nsamples = 411\nvalue = 10.446"] ;
195 -> 283 ;
284 [label="NMHC_measured <= 983.5\nmse = 0.168\nsamples = 283\nvalue = 9.902"] ;
283 -> 284 ;
285 [label="NO2_measured <= 1454.132\nmse = 0.139\nsamples = 241\nvalue = 9.826"] ;
284 -> 285 ;
286 [label="NMHC_measured <= 960.5\nmse = 0.118\nsamples = 104\nvalue = 9.49"] ;
285 -> 286 ;
287 [label="NMHC_measured <= 949.5\nmse = 0.028\nsamples = 57\nvalue = 9.229"] ;
286 -> 287 ;
288 [label="NMHC_measured <= 941.5\nmse = 0.008\nsamples = 35\nvalue = 9.104"] ;
287 -> 288 ;
289 [label="mse = 0.0\nsamples = 12\nvalue = 9.0"] ;
288 -> 289 ;
290 [label="NMHC_measured <= 944.5\nmse = 0.002\nsamples = 23\nvalue = 9.164"] ;
288 -> 290 ;
291 [label="mse = 0.0\nsamples = 7\nvalue = 9.1"] ;
290 -> 291 ;
292 [label="AH <= 0.396\nmse = 0.001\nsamples = 16\nvalue = 9.184"] ;
290 -> 292 ;
293 [label="NMHC_measured <= 945.5\nmse = 0.002\nsamples = 3\nvalue = 9.125"] ;
292 -> 293 ;
294 [label="mse = 0.0\nsamples = 2\nvalue = 9.1"] ;
293 -> 294 ;
295 [label="mse = 0.0\nsamples = 1\nvalue = 9.2"] ;
293 -> 295 ;
296 [label="temp <= 4.65\nmse = 0.0\nsamples = 13\nvalue = 9.195"] ;
292 -> 296 ;
297 [label="mse = 0.0\nsamples = 1\nvalue = 9.1"] ;
296 -> 297 ;
298 [label="mse = 0.0\nsamples = 12\nvalue = 9.2"] ;
296 -> 298 ;
299 [label="NMHC_measured <= 952.5\nmse = 0.007\nsamples = 22\nvalue = 9.395"] ;
287 -> 299 ;
300 [label="mse = 0.0\nsamples = 7\nvalue = 9.3"] ;
299 -> 300 ;
301 [label="NMHC_measured <= 957.5\nmse = 0.002\nsamples = 15\nvalue = 9.448"] ;
299 -> 301 ;
302 [label="mse = -0.0\nsamples = 7\nvalue = 9.4"] ;
301 -> 302 ;
303 [label="mse = -0.0\nsamples = 8\nvalue = 9.5"] ;
301 -> 303 ;
304 [label="NMHC_measured <= 971.5\nmse = 0.035\nsamples = 47\nvalue = 9.821"] ;
286 -> 304 ;
305 [label="NMHC_measured <= 964.5\nmse = 0.008\nsamples = 24\nvalue = 9.67"] ;
304 -> 305 ;
306 [label="RH <= 15.1\nmse = 0.001\nsamples = 10\nvalue = 9.59"] ;
305 -> 306 ;
307 [label="mse = 0.0\nsamples = 1\nvalue = 9.5"] ;
306 -> 307 ;
308 [label="mse = 0.0\nsamples = 9\nvalue = 9.6"] ;
306 -> 308 ;
309 [label="NMHC_measured <= 968.5\nmse = 0.002\nsamples = 14\nvalue = 9.75"] ;
305 -> 309 ;
310 [label="mse = 0.0\nsamples = 8\nvalue = 9.7"] ;
309 -> 310 ;
311 [label="mse = 0.0\nsamples = 6\nvalue = 9.8"] ;
309 -> 311 ;
312 [label="NMHC_measured <= 980.0\nmse = 0.005\nsamples = 23\nvalue = 10.009"] ;
304 -> 312 ;
313 [label="NMHC_measured <= 975.5\nmse = 0.002\nsamples = 14\nvalue = 9.968"] ;
312 -> 313 ;
314 [label="mse = -0.0\nsamples = 4\nvalue = 9.9"] ;
313 -> 314 ;
315 [label="mse = 0.0\nsamples = 10\nvalue = 10.0"] ;
313 -> 315 ;
316 [label="mse = -0.0\nsamples = 9\nvalue = 10.1"] ;
312 -> 316 ;
317 [label="O3_measured <= 1125.953\nmse = 0.01\nsamples = 137\nvalue = 10.073"] ;
285 -> 317 ;
318 [label="mse = 0.0\nsamples = 136\nvalue = 10.083"] ;
317 -> 318 ;
319 [label="mse = 0.0\nsamples = 1\nvalue = 9.0"] ;
317 -> 319 ;
320 [label="NMHC_measured <= 994.5\nmse = 0.029\nsamples = 42\nvalue = 10.458"] ;
284 -> 320 ;
321 [label="NMHC_measured <= 991.0\nmse = 0.006\nsamples = 21\nvalue = 10.304"] ;
320 -> 321 ;
322 [label="NMHC_measured <= 986.0\nmse = 0.002\nsamples = 14\nvalue = 10.261"] ;
321 -> 322 ;
323 [label="mse = -0.0\nsamples = 4\nvalue = 10.2"] ;
322 -> 323 ;
324 [label="mse = -0.0\nsamples = 10\nvalue = 10.3"] ;
322 -> 324 ;
325 [label="mse = -0.0\nsamples = 7\nvalue = 10.4"] ;
321 -> 325 ;
326 [label="NMHC_measured <= 997.5\nmse = 0.005\nsamples = 21\nvalue = 10.612"] ;
320 -> 326 ;
327 [label="mse = 0.0\nsamples = 5\nvalue = 10.5"] ;
326 -> 327 ;
328 [label="NMHC_measured <= 1002.5\nmse = 0.002\nsamples = 16\nvalue = 10.638"] ;
326 -> 328 ;
329 [label="NOx_measured <= 618.0\nmse = 0.001\nsamples = 10\nvalue = 10.607"] ;
328 -> 329 ;
330 [label="NOx_measured <= 605.0\nmse = 0.002\nsamples = 3\nvalue = 10.633"] ;
329 -> 330 ;
331 [label="mse = 0.0\nsamples = 2\nvalue = 10.6"] ;
330 -> 331 ;
332 [label="mse = 0.0\nsamples = 1\nvalue = 10.7"] ;
330 -> 332 ;
333 [label="mse = 0.0\nsamples = 7\nvalue = 10.6"] ;
329 -> 333 ;
334 [label="mse = 0.0\nsamples = 6\nvalue = 10.7"] ;
328 -> 334 ;
335 [label="NMHC_measured <= 1041.5\nmse = 0.326\nsamples = 128\nvalue = 11.579"] ;
283 -> 335 ;
336 [label="NMHC_measured <= 1023.5\nmse = 0.071\nsamples = 78\nvalue = 11.196"] ;
335 -> 336 ;
337 [label="NMHC_measured <= 1015.5\nmse = 0.018\nsamples = 44\nvalue = 11.001"] ;
336 -> 337 ;
338 [label="NMHC_measured <= 1008.5\nmse = 0.005\nsamples = 25\nvalue = 10.902"] ;
337 -> 338 ;
339 [label="mse = -0.0\nsamples = 5\nvalue = 10.8"] ;
338 -> 339 ;
340 [label="NMHC_measured <= 1012.5\nmse = 0.002\nsamples = 20\nvalue = 10.938"] ;
338 -> 340 ;
341 [label="mse = -0.0\nsamples = 11\nvalue = 10.9"] ;
340 -> 341 ;
342 [label="temp <= 27.3\nmse = 0.001\nsamples = 9\nvalue = 10.987"] ;
340 -> 342 ;
343 [label="mse = 0.0\nsamples = 8\nvalue = 11.0"] ;
342 -> 343 ;
344 [label="mse = -0.0\nsamples = 1\nvalue = 10.9"] ;
342 -> 344 ;
345 [label="NMHC_measured <= 1019.5\nmse = 0.002\nsamples = 19\nvalue = 11.139"] ;
337 -> 345 ;
346 [label="mse = -0.0\nsamples = 11\nvalue = 11.1"] ;
345 -> 346 ;
347 [label="RH <= 70.55\nmse = 0.002\nsamples = 8\nvalue = 11.181"] ;
345 -> 347 ;
348 [label="AH <= 0.358\nmse = 0.001\nsamples = 7\nvalue = 11.193"] ;
347 -> 348 ;
349 [label="mse = 0.0\nsamples = 1\nvalue = 11.1"] ;
348 -> 349 ;
350 [label="mse = 0.0\nsamples = 6\nvalue = 11.2"] ;
348 -> 350 ;
351 [label="mse = 0.0\nsamples = 1\nvalue = 11.1"] ;
347 -> 351 ;
352 [label="NMHC_measured <= 1030.5\nmse = 0.016\nsamples = 34\nvalue = 11.475"] ;
336 -> 352 ;
353 [label="NMHC_measured <= 1026.5\nmse = 0.002\nsamples = 19\nvalue = 11.366"] ;
352 -> 353 ;
354 [label="mse = 0.0\nsamples = 6\nvalue = 11.3"] ;
353 -> 354 ;
355 [label="mse = 0.0\nsamples = 13\nvalue = 11.4"] ;
353 -> 355 ;
356 [label="NMHC_measured <= 1033.0\nmse = 0.004\nsamples = 15\nvalue = 11.596"] ;
352 -> 356 ;
357 [label="mse = 0.0\nsamples = 4\nvalue = 11.5"] ;
356 -> 357 ;
358 [label="NMHC_measured <= 1038.0\nmse = 0.002\nsamples = 11\nvalue = 11.625"] ;
356 -> 358 ;
359 [label="mse = 0.0\nsamples = 7\nvalue = 11.6"] ;
358 -> 359 ;
360 [label="mse = 0.0\nsamples = 4\nvalue = 11.7"] ;
358 -> 360 ;
361 [label="NMHC_measured <= 1055.0\nmse = 0.059\nsamples = 50\nvalue = 12.255"] ;
335 -> 361 ;
362 [label="NMHC_measured <= 1047.5\nmse = 0.011\nsamples = 20\nvalue = 11.942"] ;
361 -> 362 ;
363 [label="NMHC_measured <= 1044.5\nmse = 0.002\nsamples = 10\nvalue = 11.862"] ;
362 -> 363 ;
364 [label="mse = 0.0\nsamples = 3\nvalue = 11.8"] ;
363 -> 364 ;
365 [label="mse = 0.0\nsamples = 7\nvalue = 11.9"] ;
363 -> 365 ;
366 [label="NMHC_measured <= 1051.0\nmse = 0.004\nsamples = 10\nvalue = 12.036"] ;
362 -> 366 ;
367 [label="NO2_measured <= 1136.5\nmse = 0.001\nsamples = 5\nvalue = 11.983"] ;
366 -> 367 ;
368 [label="mse = 0.0\nsamples = 1\nvalue = 11.9"] ;
367 -> 368 ;
369 [label="mse = -0.0\nsamples = 4\nvalue = 12.0"] ;
367 -> 369 ;
370 [label="mse = 0.0\nsamples = 5\nvalue = 12.1"] ;
366 -> 370 ;
371 [label="NMHC_measured <= 1065.5\nmse = 0.015\nsamples = 30\nvalue = 12.4"] ;
361 -> 371 ;
372 [label="NMHC_measured <= 1062.5\nmse = 0.004\nsamples = 20\nvalue = 12.335"] ;
371 -> 372 ;
373 [label="NMHC_measured <= 1058.0\nmse = 0.002\nsamples = 11\nvalue = 12.28"] ;
372 -> 373 ;
374 [label="mse = 0.0\nsamples = 3\nvalue = 12.2"] ;
373 -> 374 ;
375 [label="mse = 0.0\nsamples = 8\nvalue = 12.3"] ;
373 -> 375 ;
376 [label="mse = 0.0\nsamples = 9\nvalue = 12.4"] ;
372 -> 376 ;
377 [label="NMHC_measured <= 1068.5\nmse = 0.004\nsamples = 10\nvalue = 12.56"] ;
371 -> 377 ;
378 [label="mse = 0.0\nsamples = 4\nvalue = 12.5"] ;
377 -> 378 ;
379 [label="NOx_measured <= 546.0\nmse = 0.001\nsamples = 6\nvalue = 12.612"] ;
377 -> 379 ;
380 [label="mse = 0.0\nsamples = 1\nvalue = 12.7"] ;
379 -> 380 ;
381 [label="mse = 0.0\nsamples = 5\nvalue = 12.6"] ;
379 -> 381 ;
382 [label="NMHC_measured <= 1356.0\nmse = 36.06\nsamples = 502\nvalue = 19.316"] ;
0 -> 382 [labeldistance=2.5, labelangle=-45, headlabel="False"] ;
383 [label="NMHC_measured <= 1202.5\nmse = 6.369\nsamples = 375\nvalue = 16.614"] ;
382 -> 383 ;
384 [label="NMHC_measured <= 1134.5\nmse = 1.424\nsamples = 207\nvalue = 14.643"] ;
383 -> 384 ;
385 [label="NMHC_measured <= 1105.5\nmse = 0.284\nsamples = 95\nvalue = 13.501"] ;
384 -> 385 ;
386 [label="NMHC_measured <= 1089.0\nmse = 0.086\nsamples = 61\nvalue = 13.166"] ;
385 -> 386 ;
387 [label="NMHC_measured <= 1079.5\nmse = 0.018\nsamples = 26\nvalue = 12.859"] ;
386 -> 387 ;
388 [label="NMHC_measured <= 1075.5\nmse = 0.002\nsamples = 13\nvalue = 12.74"] ;
387 -> 388 ;
389 [label="mse = 0.0\nsamples = 6\nvalue = 12.7"] ;
388 -> 389 ;
390 [label="mse = -0.0\nsamples = 7\nvalue = 12.8"] ;
388 -> 390 ;
391 [label="NMHC_measured <= 1081.5\nmse = 0.004\nsamples = 13\nvalue = 12.984"] ;
387 -> 391 ;
392 [label="mse = 0.0\nsamples = 4\nvalue = 12.9"] ;
391 -> 392 ;
393 [label="NMHC_measured <= 1086.0\nmse = 0.002\nsamples = 9\nvalue = 13.023"] ;
391 -> 393 ;
394 [label="mse = -0.0\nsamples = 7\nvalue = 13.0"] ;
393 -> 394 ;
395 [label="mse = 0.0\nsamples = 2\nvalue = 13.1"] ;
393 -> 395 ;
396 [label="NMHC_measured <= 1098.5\nmse = 0.015\nsamples = 35\nvalue = 13.392"] ;
386 -> 396 ;
397 [label="NMHC_measured <= 1095.5\nmse = 0.005\nsamples = 24\nvalue = 13.332"] ;
396 -> 397 ;
398 [label="NMHC_measured <= 1092.5\nmse = 0.002\nsamples = 13\nvalue = 13.27"] ;
397 -> 398 ;
399 [label="mse = -0.0\nsamples = 4\nvalue = 13.2"] ;
398 -> 399 ;
400 [label="mse = 0.0\nsamples = 9\nvalue = 13.3"] ;
398 -> 400 ;
401 [label="mse = 0.0\nsamples = 11\nvalue = 13.4"] ;
397 -> 401 ;
402 [label="NMHC_measured <= 1103.0\nmse = 0.005\nsamples = 11\nvalue = 13.547"] ;
396 -> 402 ;
403 [label="CO_measured <= 1313.0\nmse = 0.001\nsamples = 6\nvalue = 13.488"] ;
402 -> 403 ;
404 [label="mse = 0.0\nsamples = 5\nvalue = 13.5"] ;
403 -> 404 ;
405 [label="mse = -0.0\nsamples = 1\nvalue = 13.4"] ;
403 -> 405 ;
406 [label="O3_measured <= 1704.5\nmse = 0.001\nsamples = 5\nvalue = 13.614"] ;
402 -> 406 ;
407 [label="mse = -0.0\nsamples = 4\nvalue = 13.6"] ;
406 -> 407 ;
408 [label="mse = -0.0\nsamples = 1\nvalue = 13.7"] ;
406 -> 408 ;
409 [label="NMHC_measured <= 1121.5\nmse = 0.049\nsamples = 34\nvalue = 14.131"] ;
385 -> 409 ;
410 [label="NMHC_measured <= 1111.5\nmse = 0.017\nsamples = 17\nvalue = 13.942"] ;
409 -> 410 ;
411 [label="AH <= 0.617\nmse = 0.002\nsamples = 4\nvalue = 13.72"] ;
410 -> 411 ;
412 [label="mse = 0.0\nsamples = 1\nvalue = 13.8"] ;
411 -> 412 ;
413 [label="mse = 0.0\nsamples = 3\nvalue = 13.7"] ;
411 -> 413 ;
414 [label="NMHC_measured <= 1115.0\nmse = 0.005\nsamples = 13\nvalue = 14.0"] ;
410 -> 414 ;
415 [label="mse = 0.0\nsamples = 4\nvalue = 13.9"] ;
414 -> 415 ;
416 [label="NMHC_measured <= 1118.5\nmse = 0.002\nsamples = 9\nvalue = 14.036"] ;
414 -> 416 ;
417 [label="mse = 0.0\nsamples = 5\nvalue = 14.0"] ;
416 -> 417 ;
418 [label="mse = 0.0\nsamples = 4\nvalue = 14.1"] ;
416 -> 418 ;
419 [label="NMHC_measured <= 1129.0\nmse = 0.012\nsamples = 17\nvalue = 14.312"] ;
409 -> 419 ;
420 [label="NMHC_measured <= 1124.5\nmse = 0.002\nsamples = 11\nvalue = 14.237"] ;
419 -> 420 ;
421 [label="mse = 0.0\nsamples = 6\nvalue = 14.2"] ;
420 -> 421 ;
422 [label="mse = -0.0\nsamples = 5\nvalue = 14.3"] ;
420 -> 422 ;
423 [label="NMHC_measured <= 1131.5\nmse = 0.002\nsamples = 6\nvalue = 14.444"] ;
419 -> 423 ;
424 [label="mse = 0.0\nsamples = 4\nvalue = 14.4"] ;
423 -> 424 ;
425 [label="mse = 0.0\nsamples = 2\nvalue = 14.5"] ;
423 -> 425 ;
426 [label="NMHC_measured <= 1168.5\nmse = 0.414\nsamples = 112\nvalue = 15.579"] ;
384 -> 426 ;
427 [label="NMHC_measured <= 1153.5\nmse = 0.099\nsamples = 57\nvalue = 15.057"] ;
426 -> 427 ;
428 [label="NMHC_measured <= 1143.5\nmse = 0.029\nsamples = 36\nvalue = 14.851"] ;
427 -> 428 ;
429 [label="NMHC_measured <= 1141.5\nmse = 0.006\nsamples = 18\nvalue = 14.712"] ;
428 -> 429 ;
430 [label="NMHC_measured <= 1137.5\nmse = 0.002\nsamples = 13\nvalue = 14.66"] ;
429 -> 430 ;
431 [label="mse = 0.0\nsamples = 5\nvalue = 14.6"] ;
430 -> 431 ;
432 [label="mse = 0.0\nsamples = 8\nvalue = 14.7"] ;
430 -> 432 ;
433 [label="mse = -0.0\nsamples = 5\nvalue = 14.8"] ;
429 -> 433 ;
434 [label="NMHC_measured <= 1150.0\nmse = 0.006\nsamples = 18\nvalue = 15.015"] ;
428 -> 434 ;
435 [label="NMHC_measured <= 1147.5\nmse = 0.002\nsamples = 11\nvalue = 14.956"] ;
434 -> 435 ;
436 [label="NO2_measured <= 1242.0\nmse = 0.001\nsamples = 5\nvalue = 14.912"] ;
435 -> 436 ;
437 [label="mse = 0.0\nsamples = 1\nvalue = 15.0"] ;
436 -> 437 ;
438 [label="mse = -0.0\nsamples = 4\nvalue = 14.9"] ;
436 -> 438 ;
439 [label="mse = -0.0\nsamples = 6\nvalue = 15.0"] ;
435 -> 439 ;
440 [label="mse = -0.0\nsamples = 7\nvalue = 15.1"] ;
434 -> 440 ;
441 [label="NMHC_measured <= 1160.5\nmse = 0.013\nsamples = 21\nvalue = 15.424"] ;
427 -> 441 ;
442 [label="NMHC_measured <= 1157.5\nmse = 0.004\nsamples = 5\nvalue = 15.267"] ;
441 -> 442 ;
443 [label="mse = -0.0\nsamples = 2\nvalue = 15.2"] ;
442 -> 443 ;
444 [label="AH <= 0.801\nmse = 0.002\nsamples = 3\nvalue = 15.32"] ;
442 -> 444 ;
445 [label="mse = 0.0\nsamples = 1\nvalue = 15.4"] ;
444 -> 445 ;
446 [label="mse = -0.0\nsamples = 2\nvalue = 15.3"] ;
444 -> 446 ;
447 [label="NMHC_measured <= 1162.5\nmse = 0.004\nsamples = 16\nvalue = 15.483"] ;
441 -> 447 ;
448 [label="mse = -0.0\nsamples = 5\nvalue = 15.4"] ;
447 -> 448 ;
449 [label="NMHC_measured <= 1166.0\nmse = 0.001\nsamples = 11\nvalue = 15.518"] ;
447 -> 449 ;
450 [label="mse = 0.0\nsamples = 8\nvalue = 15.5"] ;
449 -> 450 ;
451 [label="mse = 0.0\nsamples = 3\nvalue = 15.6"] ;
449 -> 451 ;
452 [label="NMHC_measured <= 1184.5\nmse = 0.101\nsamples = 55\nvalue = 16.18"] ;
426 -> 452 ;
453 [label="NMHC_measured <= 1175.5\nmse = 0.02\nsamples = 24\nvalue = 15.869"] ;
452 -> 453 ;
454 [label="NMHC_measured <= 1172.0\nmse = 0.002\nsamples = 12\nvalue = 15.753"] ;
453 -> 454 ;
455 [label="mse = -0.0\nsamples = 6\nvalue = 15.7"] ;
454 -> 455 ;
456 [label="mse = -0.0\nsamples = 6\nvalue = 15.8"] ;
454 -> 456 ;
457 [label="NMHC_measured <= 1180.5\nmse = 0.007\nsamples = 12\nvalue = 16.0"] ;
453 -> 457 ;
458 [label="O3_measured <= 1569.0\nmse = 0.002\nsamples = 8\nvalue = 15.945"] ;
457 -> 458 ;
459 [label="NOx_measured <= 764.5\nmse = 0.001\nsamples = 6\nvalue = 15.914"] ;
458 -> 459 ;
460 [label="mse = -0.0\nsamples = 5\nvalue = 15.9"] ;
459 -> 460 ;
461 [label="mse = 0.0\nsamples = 1\nvalue = 16.0"] ;
459 -> 461 ;
462 [label="mse = 0.0\nsamples = 2\nvalue = 16.0"] ;
458 -> 462 ;
463 [label="mse = -0.0\nsamples = 4\nvalue = 16.1"] ;
457 -> 463 ;
464 [label="NMHC_measured <= 1194.0\nmse = 0.024\nsamples = 31\nvalue = 16.434"] ;
452 -> 464 ;
465 [label="NMHC_measured <= 1190.5\nmse = 0.006\nsamples = 19\nvalue = 16.343"] ;
464 -> 465 ;
466 [label="NMHC_measured <= 1187.0\nmse = 0.002\nsamples = 9\nvalue = 16.258"] ;
465 -> 466 ;
467 [label="mse = -0.0\nsamples = 3\nvalue = 16.2"] ;
466 -> 467 ;
468 [label="mse = -0.0\nsamples = 6\nvalue = 16.3"] ;
466 -> 468 ;
469 [label="mse = 0.0\nsamples = 10\nvalue = 16.4"] ;
465 -> 469 ;
470 [label="NMHC_measured <= 1199.0\nmse = 0.006\nsamples = 12\nvalue = 16.629"] ;
464 -> 470 ;
471 [label="NMHC_measured <= 1196.5\nmse = 0.002\nsamples = 5\nvalue = 16.557"] ;
470 -> 471 ;
472 [label="mse = 0.0\nsamples = 2\nvalue = 16.5"] ;
471 -> 472 ;
473 [label="mse = 0.0\nsamples = 3\nvalue = 16.6"] ;
471 -> 473 ;
474 [label="mse = 0.0\nsamples = 7\nvalue = 16.7"] ;
470 -> 474 ;
475 [label="NMHC_measured <= 1272.5\nmse = 2.478\nsamples = 168\nvalue = 18.874"] ;
383 -> 475 ;
476 [label="NMHC_measured <= 1236.5\nmse = 0.465\nsamples = 97\nvalue = 17.739"] ;
475 -> 476 ;
477 [label="NMHC_measured <= 1217.5\nmse = 0.092\nsamples = 59\nvalue = 17.255"] ;
476 -> 477 ;
478 [label="NMHC_measured <= 1211.5\nmse = 0.02\nsamples = 27\nvalue = 16.985"] ;
477 -> 478 ;
479 [label="NMHC_measured <= 1205.5\nmse = 0.005\nsamples = 18\nvalue = 16.9"] ;
478 -> 479 ;
480 [label="mse = 0.0\nsamples = 6\nvalue = 16.8"] ;
479 -> 480 ;
481 [label="NMHC_measured <= 1208.5\nmse = 0.002\nsamples = 12\nvalue = 16.932"] ;
479 -> 481 ;
482 [label="mse = -0.0\nsamples = 9\nvalue = 16.9"] ;
481 -> 482 ;
483 [label="mse = 0.0\nsamples = 3\nvalue = 17.0"] ;
481 -> 483 ;
484 [label="NMHC_measured <= 1213.5\nmse = 0.002\nsamples = 9\nvalue = 17.173"] ;
478 -> 484 ;
485 [label="mse = 0.0\nsamples = 3\nvalue = 17.1"] ;
484 -> 485 ;
486 [label="mse = 0.0\nsamples = 6\nvalue = 17.2"] ;
484 -> 486 ;
487 [label="NMHC_measured <= 1226.5\nmse = 0.027\nsamples = 32\nvalue = 17.508"] ;
477 -> 487 ;
488 [label="NMHC_measured <= 1220.5\nmse = 0.007\nsamples = 20\nvalue = 17.4"] ;
487 -> 488 ;
489 [label="mse = 0.0\nsamples = 7\nvalue = 17.3"] ;
488 -> 489 ;
490 [label="NMHC_measured <= 1223.5\nmse = 0.002\nsamples = 13\nvalue = 17.452"] ;
488 -> 490 ;
491 [label="mse = 0.0\nsamples = 8\nvalue = 17.4"] ;
490 -> 491 ;
492 [label="mse = 0.0\nsamples = 5\nvalue = 17.5"] ;
490 -> 492 ;
493 [label="NMHC_measured <= 1231.5\nmse = 0.008\nsamples = 12\nvalue = 17.689"] ;
487 -> 493 ;
494 [label="RH <= 71.2\nmse = 0.002\nsamples = 7\nvalue = 17.625"] ;
493 -> 494 ;
495 [label="mse = 0.0\nsamples = 5\nvalue = 17.6"] ;
494 -> 495 ;
496 [label="mse = 0.0\nsamples = 2\nvalue = 17.7"] ;
494 -> 496 ;
497 [label="mse = -0.0\nsamples = 5\nvalue = 17.8"] ;
493 -> 497 ;
498 [label="NMHC_measured <= 1258.0\nmse = 0.131\nsamples = 38\nvalue = 18.477"] ;
476 -> 498 ;
499 [label="NMHC_measured <= 1246.0\nmse = 0.036\nsamples = 22\nvalue = 18.238"] ;
498 -> 499 ;
500 [label="NMHC_measured <= 1241.0\nmse = 0.007\nsamples = 10\nvalue = 18.067"] ;
499 -> 500 ;
501 [label="mse = -0.0\nsamples = 6\nvalue = 18.0"] ;
500 -> 501 ;
502 [label="NMHC_measured <= 1243.0\nmse = 0.002\nsamples = 4\nvalue = 18.156"] ;
500 -> 502 ;
503 [label="mse = 0.0\nsamples = 2\nvalue = 18.1"] ;
502 -> 503 ;
504 [label="mse = 0.0\nsamples = 2\nvalue = 18.2"] ;
502 -> 504 ;
505 [label="NMHC_measured <= 1252.5\nmse = 0.007\nsamples = 12\nvalue = 18.41"] ;
499 -> 505 ;
506 [label="NMHC_measured <= 1249.5\nmse = 0.002\nsamples = 7\nvalue = 18.354"] ;
505 -> 506 ;
507 [label="mse = 0.0\nsamples = 4\nvalue = 18.3"] ;
506 -> 507 ;
508 [label="mse = -0.0\nsamples = 3\nvalue = 18.4"] ;
506 -> 508 ;
509 [label="mse = -0.0\nsamples = 5\nvalue = 18.5"] ;
505 -> 509 ;
510 [label="NMHC_measured <= 1264.5\nmse = 0.011\nsamples = 16\nvalue = 18.913"] ;
498 -> 510 ;
511 [label="NMHC_measured <= 1261.5\nmse = 0.001\nsamples = 7\nvalue = 18.789"] ;
510 -> 511 ;
512 [label="mse = 0.0\nsamples = 1\nvalue = 18.7"] ;
511 -> 512 ;
513 [label="mse = -0.0\nsamples = 6\nvalue = 18.8"] ;
511 -> 513 ;
514 [label="CO_measured <= 1479.5\nmse = 0.001\nsamples = 9\nvalue = 18.993"] ;
510 -> 514 ;
515 [label="mse = 0.0\nsamples = 8\nvalue = 19.0"] ;
514 -> 515 ;
516 [label="mse = -0.0\nsamples = 1\nvalue = 18.9"] ;
514 -> 516 ;
517 [label="NMHC_measured <= 1315.5\nmse = 0.653\nsamples = 71\nvalue = 20.582"] ;
475 -> 517 ;
518 [label="NMHC_measured <= 1296.0\nmse = 0.154\nsamples = 38\nvalue = 19.951"] ;
517 -> 518 ;
519 [label="NMHC_measured <= 1287.0\nmse = 0.05\nsamples = 20\nvalue = 19.637"] ;
518 -> 519 ;
520 [label="NMHC_measured <= 1280.5\nmse = 0.009\nsamples = 9\nvalue = 19.413"] ;
519 -> 520 ;
521 [label="NMHC_measured <= 1278.5\nmse = 0.002\nsamples = 6\nvalue = 19.344"] ;
520 -> 521 ;
522 [label="mse = 0.0\nsamples = 4\nvalue = 19.3"] ;
521 -> 522 ;
523 [label="mse = 0.0\nsamples = 2\nvalue = 19.4"] ;
521 -> 523 ;
524 [label="temp <= 13.65\nmse = 0.001\nsamples = 3\nvalue = 19.517"] ;
520 -> 524 ;
525 [label="mse = 0.0\nsamples = 1\nvalue = 19.6"] ;
524 -> 525 ;
526 [label="mse = -0.0\nsamples = 2\nvalue = 19.5"] ;
524 -> 526 ;
527 [label="NMHC_measured <= 1292.5\nmse = 0.003\nsamples = 11\nvalue = 19.835"] ;
519 -> 527 ;
528 [label="NMHC_measured <= 1289.0\nmse = 0.001\nsamples = 7\nvalue = 19.79"] ;
527 -> 528 ;
529 [label="mse = 0.0\nsamples = 1\nvalue = 19.7"] ;
528 -> 529 ;
530 [label="mse = 0.0\nsamples = 6\nvalue = 19.8"] ;
528 -> 530 ;
531 [label="mse = -0.0\nsamples = 4\nvalue = 19.9"] ;
527 -> 531 ;
532 [label="NMHC_measured <= 1306.0\nmse = 0.04\nsamples = 18\nvalue = 20.297"] ;
518 -> 532 ;
533 [label="NMHC_measured <= 1300.5\nmse = 0.006\nsamples = 11\nvalue = 20.131"] ;
532 -> 533 ;
534 [label="O3_measured <= 1799.0\nmse = 0.002\nsamples = 8\nvalue = 20.08"] ;
533 -> 534 ;
535 [label="mse = 0.0\nsamples = 6\nvalue = 20.1"] ;
534 -> 535 ;
536 [label="mse = 0.0\nsamples = 2\nvalue = 20.0"] ;
534 -> 536 ;
537 [label="RH <= 56.7\nmse = 0.001\nsamples = 3\nvalue = 20.217"] ;
533 -> 537 ;
538 [label="mse = 0.0\nsamples = 2\nvalue = 20.2"] ;
537 -> 538 ;
539 [label="mse = 0.0\nsamples = 1\nvalue = 20.3"] ;
537 -> 539 ;
540 [label="NMHC_measured <= 1309.5\nmse = 0.006\nsamples = 7\nvalue = 20.5"] ;
532 -> 540 ;
541 [label="mse = 0.0\nsamples = 2\nvalue = 20.4"] ;
540 -> 541 ;
542 [label="RH <= 59.95\nmse = 0.002\nsamples = 5\nvalue = 20.544"] ;
540 -> 542 ;
543 [label="mse = 0.0\nsamples = 2\nvalue = 20.6"] ;
542 -> 543 ;
544 [label="mse = 0.0\nsamples = 3\nvalue = 20.5"] ;
542 -> 544 ;
545 [label="NMHC_measured <= 1335.5\nmse = 0.138\nsamples = 33\nvalue = 21.383"] ;
517 -> 545 ;
546 [label="NMHC_measured <= 1322.5\nmse = 0.024\nsamples = 15\nvalue = 21.018"] ;
545 -> 546 ;
547 [label="O3_measured <= 1770.0\nmse = 0.005\nsamples = 5\nvalue = 20.829"] ;
546 -> 547 ;
548 [label="mse = 0.0\nsamples = 3\nvalue = 20.9"] ;
547 -> 548 ;
549 [label="NO2_measured <= 1474.5\nmse = 0.002\nsamples = 2\nvalue = 20.775"] ;
547 -> 549 ;
550 [label="mse = 0.0\nsamples = 1\nvalue = 20.7"] ;
549 -> 550 ;
551 [label="mse = 0.0\nsamples = 1\nvalue = 20.8"] ;
549 -> 551 ;
552 [label="NMHC_measured <= 1327.5\nmse = 0.009\nsamples = 10\nvalue = 21.107"] ;
546 -> 552 ;
553 [label="NOx_measured <= 542.0\nmse = 0.002\nsamples = 5\nvalue = 21.044"] ;
552 -> 553 ;
554 [label="mse = 0.0\nsamples = 3\nvalue = 21.0"] ;
553 -> 554 ;
555 [label="mse = 0.0\nsamples = 2\nvalue = 21.1"] ;
553 -> 555 ;
556 [label="NO2_measured <= 1328.5\nmse = 0.003\nsamples = 5\nvalue = 21.2"] ;
552 -> 556 ;
557 [label="mse = 0.0\nsamples = 1\nvalue = 21.1"] ;
556 -> 557 ;
558 [label="NO2_measured <= 1687.5\nmse = 0.002\nsamples = 4\nvalue = 21.22"] ;
556 -> 558 ;
559 [label="mse = 0.0\nsamples = 3\nvalue = 21.2"] ;
558 -> 559 ;
560 [label="mse = -0.0\nsamples = 1\nvalue = 21.3"] ;
558 -> 560 ;
561 [label="NMHC_measured <= 1343.5\nmse = 0.026\nsamples = 18\nvalue = 21.692"] ;
545 -> 561 ;
562 [label="NMHC_measured <= 1338.5\nmse = 0.005\nsamples = 11\nvalue = 21.573"] ;
561 -> 562 ;
563 [label="mse = 0.0\nsamples = 4\nvalue = 21.5"] ;
562 -> 563 ;
564 [label="NMHC_measured <= 1341.5\nmse = 0.003\nsamples = 7\nvalue = 21.61"] ;
562 -> 564 ;
565 [label="temp <= 8.4\nmse = 0.001\nsamples = 5\nvalue = 21.588"] ;
564 -> 565 ;
566 [label="mse = 0.0\nsamples = 1\nvalue = 21.5"] ;
565 -> 566 ;
567 [label="mse = 0.0\nsamples = 4\nvalue = 21.6"] ;
565 -> 567 ;
568 [label="mse = 0.0\nsamples = 2\nvalue = 21.7"] ;
564 -> 568 ;
569 [label="NMHC_measured <= 1350.5\nmse = 0.01\nsamples = 7\nvalue = 21.855"] ;
561 -> 569 ;
570 [label="NMHC_measured <= 1348.0\nmse = 0.001\nsamples = 5\nvalue = 21.811"] ;
569 -> 570 ;
571 [label="mse = 0.0\nsamples = 4\nvalue = 21.8"] ;
570 -> 571 ;
572 [label="mse = -0.0\nsamples = 1\nvalue = 21.9"] ;
570 -> 572 ;
573 [label="O3_measured <= 1931.5\nmse = 0.003\nsamples = 2\nvalue = 22.05"] ;
569 -> 573 ;
574 [label="mse = 0.0\nsamples = 1\nvalue = 22.0"] ;
573 -> 574 ;
575 [label="mse = 0.0\nsamples = 1\nvalue = 22.1"] ;
573 -> 575 ;
576 [label="NMHC_measured <= 1593.5\nmse = 33.737\nsamples = 127\nvalue = 27.875"] ;
382 -> 576 ;
577 [label="NMHC_measured <= 1472.0\nmse = 7.181\nsamples = 104\nvalue = 25.81"] ;
576 -> 577 ;
578 [label="NMHC_measured <= 1410.5\nmse = 1.709\nsamples = 69\nvalue = 24.231"] ;
577 -> 578 ;
579 [label="NMHC_measured <= 1382.5\nmse = 0.368\nsamples = 34\nvalue = 23.125"] ;
578 -> 579 ;
580 [label="NMHC_measured <= 1368.5\nmse = 0.065\nsamples = 19\nvalue = 22.681"] ;
579 -> 580 ;
581 [label="NMHC_measured <= 1364.0\nmse = 0.012\nsamples = 9\nvalue = 22.44"] ;
580 -> 581 ;
582 [label="NMHC_measured <= 1360.5\nmse = 0.002\nsamples = 6\nvalue = 22.37"] ;
581 -> 582 ;
583 [label="mse = 0.0\nsamples = 2\nvalue = 22.3"] ;
582 -> 583 ;
584 [label="mse = -0.0\nsamples = 4\nvalue = 22.4"] ;
582 -> 584 ;
585 [label="O3_measured <= 1980.0\nmse = 0.002\nsamples = 3\nvalue = 22.58"] ;
581 -> 585 ;
586 [label="mse = 0.0\nsamples = 2\nvalue = 22.6"] ;
585 -> 586 ;
587 [label="mse = -0.0\nsamples = 1\nvalue = 22.5"] ;
585 -> 587 ;
588 [label="NMHC_measured <= 1372.5\nmse = 0.009\nsamples = 10\nvalue = 22.906"] ;
580 -> 588 ;
589 [label="mse = 0.0\nsamples = 2\nvalue = 22.7"] ;
588 -> 589 ;
590 [label="NMHC_measured <= 1376.0\nmse = 0.004\nsamples = 8\nvalue = 22.936"] ;
588 -> 590 ;
591 [label="mse = 0.0\nsamples = 5\nvalue = 22.9"] ;
590 -> 591 ;
592 [label="CO_measured <= 1524.5\nmse = 0.002\nsamples = 3\nvalue = 23.025"] ;
590 -> 592 ;
593 [label="mse = 0.0\nsamples = 1\nvalue = 23.1"] ;
592 -> 593 ;
594 [label="mse = 0.0\nsamples = 2\nvalue = 23.0"] ;
592 -> 594 ;
595 [label="NMHC_measured <= 1396.5\nmse = 0.126\nsamples = 15\nvalue = 23.75"] ;
579 -> 595 ;
596 [label="O3_measured <= 1708.5\nmse = 0.012\nsamples = 7\nvalue = 23.38"] ;
595 -> 596 ;
597 [label="NOx_measured <= 438.5\nmse = 0.002\nsamples = 3\nvalue = 23.533"] ;
596 -> 597 ;
598 [label="mse = 0.0\nsamples = 1\nvalue = 23.6"] ;
597 -> 598 ;
599 [label="mse = 0.0\nsamples = 2\nvalue = 23.5"] ;
597 -> 599 ;
600 [label="NMHC_measured <= 1386.5\nmse = 0.001\nsamples = 4\nvalue = 23.314"] ;
596 -> 600 ;
601 [label="mse = 0.0\nsamples = 3\nvalue = 23.3"] ;
600 -> 601 ;
602 [label="mse = -0.0\nsamples = 1\nvalue = 23.4"] ;
600 -> 602 ;
603 [label="NMHC_measured <= 1405.0\nmse = 0.012\nsamples = 8\nvalue = 24.058"] ;
595 -> 603 ;
604 [label="CO_measured <= 1394.0\nmse = 0.006\nsamples = 4\nvalue = 23.967"] ;
603 -> 604 ;
605 [label="mse = 0.0\nsamples = 1\nvalue = 23.8"] ;
604 -> 605 ;
606 [label="mse = -0.0\nsamples = 3\nvalue = 24.0"] ;
604 -> 606 ;
607 [label="NMHC_measured <= 1407.5\nmse = 0.003\nsamples = 4\nvalue = 24.15"] ;
603 -> 607 ;
608 [label="mse = -0.0\nsamples = 2\nvalue = 24.1"] ;
607 -> 608 ;
609 [label="mse = -0.0\nsamples = 2\nvalue = 24.2"] ;
607 -> 609 ;
610 [label="NMHC_measured <= 1442.0\nmse = 0.51\nsamples = 35\nvalue = 25.38"] ;
578 -> 610 ;
611 [label="NMHC_measured <= 1426.5\nmse = 0.16\nsamples = 22\nvalue = 24.894"] ;
610 -> 611 ;
612 [label="NMHC_measured <= 1418.5\nmse = 0.026\nsamples = 11\nvalue = 24.513"] ;
611 -> 612 ;
613 [label="RH <= 59.05\nmse = 0.007\nsamples = 6\nvalue = 24.4"] ;
612 -> 613 ;
614 [label="NMHC_measured <= 1412.5\nmse = 0.003\nsamples = 4\nvalue = 24.35"] ;
613 -> 614 ;
615 [label="mse = 0.0\nsamples = 2\nvalue = 24.3"] ;
614 -> 615 ;
616 [label="mse = -0.0\nsamples = 2\nvalue = 24.4"] ;
614 -> 616 ;
617 [label="mse = -0.0\nsamples = 2\nvalue = 24.5"] ;
613 -> 617 ;
618 [label="NMHC_measured <= 1420.0\nmse = 0.008\nsamples = 5\nvalue = 24.683"] ;
612 -> 618 ;
619 [label="mse = -0.0\nsamples = 2\nvalue = 24.6"] ;
618 -> 619 ;
620 [label="NOx_measured <= 456.0\nmse = 0.002\nsamples = 3\nvalue = 24.767"] ;
618 -> 620 ;
621 [label="mse = 0.0\nsamples = 2\nvalue = 24.8"] ;
620 -> 621 ;
622 [label="mse = -0.0\nsamples = 1\nvalue = 24.7"] ;
620 -> 622 ;
623 [label="NMHC_measured <= 1435.0\nmse = 0.023\nsamples = 11\nvalue = 25.25"] ;
611 -> 623 ;
624 [label="NOx_measured <= 431.0\nmse = 0.009\nsamples = 5\nvalue = 25.1"] ;
623 -> 624 ;
625 [label="mse = 0.0\nsamples = 2\nvalue = 25.2"] ;
624 -> 625 ;
626 [label="temp <= 5.55\nmse = 0.002\nsamples = 3\nvalue = 25.025"] ;
624 -> 626 ;
627 [label="mse = 0.0\nsamples = 1\nvalue = 25.1"] ;
626 -> 627 ;
628 [label="mse = 0.0\nsamples = 2\nvalue = 25.0"] ;
626 -> 628 ;
629 [label="NOx_measured <= 428.0\nmse = 0.002\nsamples = 6\nvalue = 25.367"] ;
623 -> 629 ;
630 [label="mse = 0.0\nsamples = 2\nvalue = 25.3"] ;
629 -> 630 ;
631 [label="mse = -0.0\nsamples = 4\nvalue = 25.4"] ;
629 -> 631 ;
632 [label="NMHC_measured <= 1459.0\nmse = 0.116\nsamples = 13\nvalue = 26.135"] ;
610 -> 632 ;
633 [label="temp <= 12.55\nmse = 0.037\nsamples = 6\nvalue = 25.864"] ;
632 -> 633 ;
634 [label="temp <= 6.65\nmse = 0.002\nsamples = 3\nvalue = 26.033"] ;
633 -> 634 ;
635 [label="mse = 0.0\nsamples = 1\nvalue = 26.0"] ;
634 -> 635 ;
636 [label="mse = 0.0\nsamples = 2\nvalue = 26.1"] ;
634 -> 636 ;
637 [label="AH <= 0.87\nmse = 0.002\nsamples = 3\nvalue = 25.66"] ;
633 -> 637 ;
638 [label="mse = 0.0\nsamples = 1\nvalue = 25.6"] ;
637 -> 638 ;
639 [label="mse = 0.0\nsamples = 2\nvalue = 25.7"] ;
637 -> 639 ;
640 [label="AH <= 0.702\nmse = 0.013\nsamples = 7\nvalue = 26.467"] ;
632 -> 640 ;
641 [label="mse = 0.0\nsamples = 1\nvalue = 26.2"] ;
640 -> 641 ;
642 [label="NMHC_measured <= 1468.0\nmse = 0.005\nsamples = 6\nvalue = 26.5"] ;
640 -> 642 ;
643 [label="CO_measured <= 1517.0\nmse = 0.002\nsamples = 4\nvalue = 26.467"] ;
642 -> 643 ;
644 [label="mse = 0.0\nsamples = 2\nvalue = 26.4"] ;
643 -> 644 ;
645 [label="mse = -0.0\nsamples = 2\nvalue = 26.5"] ;
643 -> 645 ;
646 [label="mse = 0.0\nsamples = 2\nvalue = 26.6"] ;
642 -> 646 ;
647 [label="NMHC_measured <= 1536.5\nmse = 2.256\nsamples = 35\nvalue = 29.163"] ;
577 -> 647 ;
648 [label="NMHC_measured <= 1508.5\nmse = 0.661\nsamples = 20\nvalue = 28.018"] ;
647 -> 648 ;
649 [label="NMHC_measured <= 1488.0\nmse = 0.195\nsamples = 14\nvalue = 27.489"] ;
648 -> 649 ;
650 [label="NMHC_measured <= 1479.5\nmse = 0.025\nsamples = 8\nvalue = 27.037"] ;
649 -> 650 ;
651 [label="RH <= 54.35\nmse = 0.01\nsamples = 4\nvalue = 26.9"] ;
650 -> 651 ;
652 [label="mse = 0.0\nsamples = 2\nvalue = 27.0"] ;
651 -> 652 ;
653 [label="mse = 0.0\nsamples = 2\nvalue = 26.8"] ;
651 -> 653 ;
654 [label="O3_measured <= 2001.5\nmse = 0.002\nsamples = 4\nvalue = 27.175"] ;
650 -> 654 ;
655 [label="mse = -0.0\nsamples = 3\nvalue = 27.2"] ;
654 -> 655 ;
656 [label="mse = 0.0\nsamples = 1\nvalue = 27.1"] ;
654 -> 656 ;
657 [label="NMHC_measured <= 1499.0\nmse = 0.038\nsamples = 6\nvalue = 27.85"] ;
649 -> 657 ;
658 [label="AH <= 0.823\nmse = 0.009\nsamples = 2\nvalue = 27.567"] ;
657 -> 658 ;
659 [label="mse = 0.0\nsamples = 1\nvalue = 27.7"] ;
658 -> 659 ;
660 [label="mse = 0.0\nsamples = 1\nvalue = 27.5"] ;
658 -> 660 ;
661 [label="NO2_measured <= 1855.5\nmse = 0.002\nsamples = 4\nvalue = 27.971"] ;
657 -> 661 ;
662 [label="mse = 0.0\nsamples = 3\nvalue = 28.0"] ;
661 -> 662 ;
663 [label="mse = -0.0\nsamples = 1\nvalue = 27.9"] ;
661 -> 663 ;
664 [label="CO_measured <= 1512.0\nmse = 0.088\nsamples = 6\nvalue = 28.97"] ;
648 -> 664 ;
665 [label="mse = 0.0\nsamples = 1\nvalue = 28.4"] ;
664 -> 665 ;
666 [label="CO_measured <= 1562.5\nmse = 0.009\nsamples = 5\nvalue = 29.112"] ;
664 -> 666 ;
667 [label="mse = -0.0\nsamples = 2\nvalue = 29.2"] ;
666 -> 667 ;
668 [label="RH <= 59.45\nmse = 0.002\nsamples = 3\nvalue = 29.025"] ;
666 -> 668 ;
669 [label="mse = 0.0\nsamples = 1\nvalue = 29.1"] ;
668 -> 669 ;
670 [label="mse = 0.0\nsamples = 2\nvalue = 29.0"] ;
668 -> 670 ;
671 [label="NMHC_measured <= 1565.0\nmse = 0.301\nsamples = 15\nvalue = 30.69"] ;
647 -> 671 ;
672 [label="NMHC_measured <= 1548.0\nmse = 0.114\nsamples = 7\nvalue = 30.125"] ;
671 -> 672 ;
673 [label="NMHC_measured <= 1542.0\nmse = 0.01\nsamples = 2\nvalue = 29.6"] ;
672 -> 673 ;
674 [label="mse = 0.0\nsamples = 1\nvalue = 29.5"] ;
673 -> 674 ;
675 [label="mse = -0.0\nsamples = 1\nvalue = 29.7"] ;
673 -> 675 ;
676 [label="RH <= 60.0\nmse = 0.027\nsamples = 5\nvalue = 30.3"] ;
672 -> 676 ;
677 [label="mse = 0.0\nsamples = 2\nvalue = 30.1"] ;
676 -> 677 ;
678 [label="NMHC_measured <= 1560.5\nmse = 0.01\nsamples = 3\nvalue = 30.4"] ;
676 -> 678 ;
679 [label="mse = 0.0\nsamples = 2\nvalue = 30.3"] ;
678 -> 679 ;
680 [label="mse = 0.0\nsamples = 1\nvalue = 30.5"] ;
678 -> 680 ;
681 [label="NMHC_measured <= 1578.5\nmse = 0.098\nsamples = 8\nvalue = 31.038"] ;
671 -> 681 ;
682 [label="NMHC_measured <= 1571.5\nmse = 0.014\nsamples = 5\nvalue = 30.88"] ;
681 -> 682 ;
683 [label="NO2_measured <= 2080.0\nmse = 0.002\nsamples = 3\nvalue = 30.75"] ;
682 -> 683 ;
684 [label="mse = 0.0\nsamples = 2\nvalue = 30.8"] ;
683 -> 684 ;
685 [label="mse = 0.0\nsamples = 1\nvalue = 30.7"] ;
683 -> 685 ;
686 [label="O3_measured <= 1926.0\nmse = 0.002\nsamples = 2\nvalue = 30.967"] ;
682 -> 686 ;
687 [label="mse = 0.0\nsamples = 1\nvalue = 31.0"] ;
686 -> 687 ;
688 [label="mse = -0.0\nsamples = 1\nvalue = 30.9"] ;
686 -> 688 ;
689 [label="temp <= 9.3\nmse = 0.016\nsamples = 3\nvalue = 31.567"] ;
681 -> 689 ;
690 [label="mse = 0.0\nsamples = 1\nvalue = 31.4"] ;
689 -> 690 ;
691 [label="RH <= 73.5\nmse = 0.002\nsamples = 2\nvalue = 31.65"] ;
689 -> 691 ;
692 [label="mse = 0.0\nsamples = 1\nvalue = 31.6"] ;
691 -> 692 ;
693 [label="mse = 0.0\nsamples = 1\nvalue = 31.7"] ;
691 -> 693 ;
694 [label="NMHC_measured <= 1791.0\nmse = 42.938\nsamples = 23\nvalue = 37.744"] ;
576 -> 694 ;
695 [label="NMHC_measured <= 1657.0\nmse = 3.001\nsamples = 18\nvalue = 35.008"] ;
694 -> 695 ;
696 [label="NMHC_measured <= 1618.0\nmse = 0.368\nsamples = 8\nvalue = 33.06"] ;
695 -> 696 ;
697 [label="NOx_measured <= 370.0\nmse = 0.06\nsamples = 4\nvalue = 32.4"] ;
696 -> 697 ;
698 [label="mse = 0.0\nsamples = 1\nvalue = 32.0"] ;
697 -> 698 ;
699 [label="CO_measured <= 1680.5\nmse = 0.009\nsamples = 3\nvalue = 32.533"] ;
697 -> 699 ;
700 [label="mse = 0.0\nsamples = 2\nvalue = 32.6"] ;
699 -> 700 ;
701 [label="mse = -0.0\nsamples = 1\nvalue = 32.4"] ;
699 -> 701 ;
702 [label="O3_measured <= 2362.0\nmse = 0.09\nsamples = 4\nvalue = 33.5"] ;
696 -> 702 ;
703 [label="NMHC_measured <= 1629.5\nmse = 0.015\nsamples = 3\nvalue = 33.3"] ;
702 -> 703 ;
704 [label="CO_measured <= 1680.5\nmse = 0.002\nsamples = 2\nvalue = 33.233"] ;
703 -> 704 ;
705 [label="mse = 0.0\nsamples = 1\nvalue = 33.3"] ;
704 -> 705 ;
706 [label="mse = 0.0\nsamples = 1\nvalue = 33.2"] ;
704 -> 706 ;
707 [label="mse = 0.0\nsamples = 1\nvalue = 33.5"] ;
703 -> 707 ;
708 [label="mse = -0.0\nsamples = 1\nvalue = 33.9"] ;
702 -> 708 ;
709 [label="NMHC_measured <= 1705.5\nmse = 0.794\nsamples = 10\nvalue = 36.225"] ;
695 -> 709 ;
710 [label="NMHC_measured <= 1684.0\nmse = 0.154\nsamples = 7\nvalue = 35.758"] ;
709 -> 710 ;
711 [label="NMHC_measured <= 1676.0\nmse = 0.01\nsamples = 4\nvalue = 35.5"] ;
710 -> 711 ;
712 [label="NO2_measured <= 2131.0\nmse = 0.003\nsamples = 2\nvalue = 35.45"] ;
711 -> 712 ;
713 [label="mse = 0.0\nsamples = 1\nvalue = 35.4"] ;
712 -> 713 ;
714 [label="mse = 0.0\nsamples = 1\nvalue = 35.5"] ;
712 -> 714 ;
715 [label="temp <= 10.55\nmse = 0.002\nsamples = 2\nvalue = 35.65"] ;
711 -> 715 ;
716 [label="mse = 0.0\nsamples = 1\nvalue = 35.7"] ;
715 -> 716 ;
717 [label="mse = -0.0\nsamples = 1\nvalue = 35.6"] ;
715 -> 717 ;
718 [label="O3_measured <= 2179.0\nmse = 0.042\nsamples = 3\nvalue = 36.275"] ;
710 -> 718 ;
719 [label="mse = 0.0\nsamples = 1\nvalue = 36.6"] ;
718 -> 719 ;
720 [label="RH <= 53.6\nmse = 0.009\nsamples = 2\nvalue = 36.167"] ;
718 -> 720 ;
721 [label="mse = 0.0\nsamples = 1\nvalue = 36.1"] ;
720 -> 721 ;
722 [label="mse = -0.0\nsamples = 1\nvalue = 36.3"] ;
720 -> 722 ;
723 [label="NOx_measured <= 365.0\nmse = 0.102\nsamples = 3\nvalue = 37.625"] ;
709 -> 723 ;
724 [label="mse = 0.0\nsamples = 1\nvalue = 38.1"] ;
723 -> 724 ;
725 [label="O3_measured <= 2126.0\nmse = 0.036\nsamples = 2\nvalue = 37.467"] ;
723 -> 725 ;
726 [label="mse = 0.0\nsamples = 1\nvalue = 37.6"] ;
725 -> 726 ;
727 [label="mse = 0.0\nsamples = 1\nvalue = 37.2"] ;
725 -> 727 ;
728 [label="NOx_measured <= 383.5\nmse = 42.987\nsamples = 5\nvalue = 49.6"] ;
694 -> 728 ;
729 [label="AH <= 1.065\nmse = 3.87\nsamples = 4\nvalue = 46.78"] ;
728 -> 729 ;
730 [label="NO2_measured <= 2356.0\nmse = 0.642\nsamples = 2\nvalue = 48.267"] ;
729 -> 730 ;
731 [label="mse = 0.0\nsamples = 1\nvalue = 47.7"] ;
730 -> 731 ;
732 [label="mse = -0.0\nsamples = 1\nvalue = 49.4"] ;
730 -> 732 ;
733 [label="NO2_measured <= 2371.5\nmse = 0.422\nsamples = 2\nvalue = 44.55"] ;
729 -> 733 ;
734 [label="mse = 0.0\nsamples = 1\nvalue = 45.2"] ;
733 -> 734 ;
735 [label="mse = 0.0\nsamples = 1\nvalue = 43.9"] ;
733 -> 735 ;
736 [label="mse = 0.0\nsamples = 1\nvalue = 63.7"] ;
728 -> 736 ;
}