digraph Tree {
node [shape=box] ;
0 [label="NMHC_measured <= 1068.5\nmse = 48.089\nsamples = 2135\nvalue = 9.113"] ;
1 [label="NMHC_measured <= 827.5\nmse = 10.673\nsamples = 1631\nvalue = 5.988"] ;
0 -> 1 [labeldistance=2.5, labelangle=45, headlabel="True"] ;
2 [label="NMHC_measured <= 679.5\nmse = 2.598\nsamples = 911\nvalue = 3.477"] ;
1 -> 2 ;
3 [label="NMHC_measured <= 580.5\nmse = 0.787\nsamples = 454\nvalue = 2.099"] ;
2 -> 3 ;
4 [label="NMHC_measured <= 504.5\nmse = 0.246\nsamples = 195\nvalue = 1.176"] ;
3 -> 4 ;
5 [label="NMHC_measured <= 461.0\nmse = 0.069\nsamples = 77\nvalue = 0.637"] ;
4 -> 5 ;
6 [label="NMHC_measured <= 420.5\nmse = 0.023\nsamples = 36\nvalue = 0.404"] ;
5 -> 6 ;
7 [label="NMHC_measured <= 404.5\nmse = 0.004\nsamples = 13\nvalue = 0.235"] ;
6 -> 7 ;
8 [label="NMHC_measured <= 385.0\nmse = 0.001\nsamples = 8\nvalue = 0.182"] ;
7 -> 8 ;
9 [label="mse = 0.0\nsamples = 2\nvalue = 0.1"] ;
8 -> 9 ;
10 [label="mse = 0.0\nsamples = 6\nvalue = 0.2"] ;
8 -> 10 ;
11 [label="mse = -0.0\nsamples = 5\nvalue = 0.3"] ;
7 -> 11 ;
12 [label="NMHC_measured <= 450.0\nmse = 0.006\nsamples = 23\nvalue = 0.509"] ;
6 -> 12 ;
13 [label="NMHC_measured <= 435.5\nmse = 0.002\nsamples = 16\nvalue = 0.462"] ;
12 -> 13 ;
14 [label="mse = 0.0\nsamples = 6\nvalue = 0.4"] ;
13 -> 14 ;
15 [label="mse = -0.0\nsamples = 10\nvalue = 0.5"] ;
13 -> 15 ;
16 [label="mse = 0.0\nsamples = 7\nvalue = 0.6"] ;
12 -> 16 ;
17 [label="NMHC_measured <= 484.0\nmse = 0.015\nsamples = 41\nvalue = 0.849"] ;
5 -> 17 ;
18 [label="NMHC_measured <= 472.5\nmse = 0.002\nsamples = 23\nvalue = 0.74"] ;
17 -> 18 ;
19 [label="mse = 0.0\nsamples = 13\nvalue = 0.7"] ;
18 -> 19 ;
20 [label="CO_measured <= 725.0\nmse = 0.001\nsamples = 10\nvalue = 0.792"] ;
18 -> 20 ;
21 [label="mse = 0.0\nsamples = 1\nvalue = 0.7"] ;
20 -> 21 ;
22 [label="mse = -0.0\nsamples = 9\nvalue = 0.8"] ;
20 -> 22 ;
23 [label="NMHC_measured <= 493.5\nmse = 0.002\nsamples = 18\nvalue = 0.97"] ;
17 -> 23 ;
24 [label="mse = 0.0\nsamples = 4\nvalue = 0.9"] ;
23 -> 24 ;
25 [label="temp <= 2.1\nmse = 0.0\nsamples = 14\nvalue = 0.995"] ;
23 -> 25 ;
26 [label="mse = 0.0\nsamples = 1\nvalue = 0.9"] ;
25 -> 26 ;
27 [label="mse = 0.0\nsamples = 13\nvalue = 1.0"] ;
25 -> 27 ;
28 [label="NMHC_measured <= 548.5\nmse = 0.06\nsamples = 118\nvalue = 1.514"] ;
4 -> 28 ;
29 [label="NMHC_measured <= 531.5\nmse = 0.017\nsamples = 62\nvalue = 1.326"] ;
28 -> 29 ;
30 [label="NMHC_measured <= 523.5\nmse = 0.006\nsamples = 34\nvalue = 1.218"] ;
29 -> 30 ;
31 [label="NMHC_measured <= 514.5\nmse = 0.002\nsamples = 21\nvalue = 1.165"] ;
30 -> 31 ;
32 [label="NMHC_measured <= 513.0\nmse = 0.001\nsamples = 8\nvalue = 1.115"] ;
31 -> 32 ;
33 [label="mse = 0.0\nsamples = 6\nvalue = 1.1"] ;
32 -> 33 ;
34 [label="NO2_measured <= 825.5\nmse = 0.002\nsamples = 2\nvalue = 1.15"] ;
32 -> 34 ;
35 [label="mse = 0.0\nsamples = 1\nvalue = 1.1"] ;
34 -> 35 ;
36 [label="mse = 0.0\nsamples = 1\nvalue = 1.2"] ;
34 -> 36 ;
37 [label="mse = -0.0\nsamples = 13\nvalue = 1.2"] ;
31 -> 37 ;
38 [label="mse = 0.0\nsamples = 13\nvalue = 1.3"] ;
30 -> 38 ;
39 [label="NMHC_measured <= 540.5\nmse = 0.002\nsamples = 28\nvalue = 1.446"] ;
29 -> 39 ;
40 [label="mse = 0.0\nsamples = 16\nvalue = 1.4"] ;
39 -> 40 ;
41 [label="mse = -0.0\nsamples = 12\nvalue = 1.5"] ;
39 -> 41 ;
42 [label="NMHC_measured <= 564.0\nmse = 0.014\nsamples = 56\nvalue = 1.751"] ;
28 -> 42 ;
43 [label="NMHC_measured <= 557.0\nmse = 0.002\nsamples = 25\nvalue = 1.623"] ;
42 -> 43 ;
44 [label="RH <= 75.1\nmse = 0.0\nsamples = 17\nvalue = 1.596"] ;
43 -> 44 ;
45 [label="mse = -0.0\nsamples = 16\nvalue = 1.6"] ;
44 -> 45 ;
46 [label="mse = 0.0\nsamples = 1\nvalue = 1.5"] ;
44 -> 46 ;
47 [label="mse = -0.0\nsamples = 8\nvalue = 1.7"] ;
43 -> 47 ;
48 [label="NMHC_measured <= 572.5\nmse = 0.003\nsamples = 31\nvalue = 1.837"] ;
42 -> 48 ;
49 [label="AH <= 1.066\nmse = 0.001\nsamples = 18\nvalue = 1.793"] ;
48 -> 49 ;
50 [label="mse = 0.0\nsamples = 17\nvalue = 1.8"] ;
49 -> 50 ;
51 [label="mse = -0.0\nsamples = 1\nvalue = 1.7"] ;
49 -> 51 ;
52 [label="mse = 0.0\nsamples = 13\nvalue = 1.9"] ;
48 -> 52 ;
53 [label="NMHC_measured <= 629.5\nmse = 0.202\nsamples = 259\nvalue = 2.714"] ;
3 -> 53 ;
54 [label="NMHC_measured <= 602.5\nmse = 0.037\nsamples = 110\nvalue = 2.27"] ;
53 -> 54 ;
55 [label="NMHC_measured <= 595.5\nmse = 0.007\nsamples = 51\nvalue = 2.098"] ;
54 -> 55 ;
56 [label="NMHC_measured <= 588.0\nmse = 0.002\nsamples = 35\nvalue = 2.049"] ;
55 -> 56 ;
57 [label="mse = -0.0\nsamples = 19\nvalue = 2.0"] ;
56 -> 57 ;
58 [label="mse = 0.0\nsamples = 16\nvalue = 2.1"] ;
56 -> 58 ;
59 [label="AH <= 0.415\nmse = 0.001\nsamples = 16\nvalue = 2.207"] ;
55 -> 59 ;
60 [label="NOx_measured <= 1043.5\nmse = 0.002\nsamples = 5\nvalue = 2.233"] ;
59 -> 60 ;
61 [label="mse = 0.0\nsamples = 1\nvalue = 2.3"] ;
60 -> 61 ;
62 [label="mse = 0.0\nsamples = 4\nvalue = 2.2"] ;
60 -> 62 ;
63 [label="mse = -0.0\nsamples = 11\nvalue = 2.2"] ;
59 -> 63 ;
64 [label="NMHC_measured <= 615.5\nmse = 0.01\nsamples = 59\nvalue = 2.436"] ;
54 -> 64 ;
65 [label="NMHC_measured <= 609.5\nmse = 0.002\nsamples = 29\nvalue = 2.359"] ;
64 -> 65 ;
66 [label="O3_measured <= 911.0\nmse = 0.001\nsamples = 14\nvalue = 2.312"] ;
65 -> 66 ;
67 [label="mse = 0.0\nsamples = 13\nvalue = 2.3"] ;
66 -> 67 ;
68 [label="mse = -0.0\nsamples = 1\nvalue = 2.4"] ;
66 -> 68 ;
69 [label="mse = -0.0\nsamples = 15\nvalue = 2.4"] ;
65 -> 69 ;
70 [label="NMHC_measured <= 623.5\nmse = 0.003\nsamples = 30\nvalue = 2.528"] ;
64 -> 70 ;
71 [label="NMHC_measured <= 616.5\nmse = 0.001\nsamples = 19\nvalue = 2.493"] ;
70 -> 71 ;
72 [label="NOx_measured <= 1020.0\nmse = 0.002\nsamples = 3\nvalue = 2.45"] ;
71 -> 72 ;
73 [label="mse = -0.0\nsamples = 2\nvalue = 2.5"] ;
72 -> 73 ;
74 [label="mse = 0.0\nsamples = 1\nvalue = 2.4"] ;
72 -> 74 ;
75 [label="mse = -0.0\nsamples = 16\nvalue = 2.5"] ;
71 -> 75 ;
76 [label="mse = 0.0\nsamples = 11\nvalue = 2.6"] ;
70 -> 76 ;
77 [label="NMHC_measured <= 654.5\nmse = 0.059\nsamples = 149\nvalue = 3.057"] ;
53 -> 77 ;
78 [label="NMHC_measured <= 642.5\nmse = 0.012\nsamples = 72\nvalue = 2.832"] ;
77 -> 78 ;
79 [label="NMHC_measured <= 635.5\nmse = 0.003\nsamples = 41\nvalue = 2.754"] ;
78 -> 79 ;
80 [label="CO_measured <= 818.5\nmse = 0.0\nsamples = 17\nvalue = 2.696"] ;
79 -> 80 ;
81 [label="RH <= 39.05\nmse = 0.002\nsamples = 2\nvalue = 2.65"] ;
80 -> 81 ;
82 [label="mse = 0.0\nsamples = 1\nvalue = 2.7"] ;
81 -> 82 ;
83 [label="mse = -0.0\nsamples = 1\nvalue = 2.6"] ;
81 -> 83 ;
84 [label="mse = -0.0\nsamples = 15\nvalue = 2.7"] ;
80 -> 84 ;
85 [label="NOx_measured <= 1359.5\nmse = 0.0\nsamples = 24\nvalue = 2.795"] ;
79 -> 85 ;
86 [label="mse = 0.0\nsamples = 23\nvalue = 2.8"] ;
85 -> 86 ;
87 [label="mse = 0.0\nsamples = 1\nvalue = 2.7"] ;
85 -> 87 ;
88 [label="NMHC_measured <= 649.5\nmse = 0.002\nsamples = 31\nvalue = 2.946"] ;
78 -> 88 ;
89 [label="CO_measured <= 854.0\nmse = 0.001\nsamples = 19\nvalue = 2.914"] ;
88 -> 89 ;
90 [label="temp <= 3.5\nmse = 0.002\nsamples = 3\nvalue = 2.967"] ;
89 -> 90 ;
91 [label="mse = 0.0\nsamples = 1\nvalue = 3.0"] ;
90 -> 91 ;
92 [label="mse = -0.0\nsamples = 2\nvalue = 2.9"] ;
90 -> 92 ;
93 [label="mse = 0.0\nsamples = 16\nvalue = 2.9"] ;
89 -> 93 ;
94 [label="mse = 0.0\nsamples = 12\nvalue = 3.0"] ;
88 -> 94 ;
95 [label="NMHC_measured <= 667.0\nmse = 0.016\nsamples = 77\nvalue = 3.257"] ;
77 -> 95 ;
96 [label="NMHC_measured <= 661.5\nmse = 0.003\nsamples = 36\nvalue = 3.117"] ;
95 -> 96 ;
97 [label="RH <= 29.7\nmse = 0.001\nsamples = 28\nvalue = 3.093"] ;
96 -> 97 ;
98 [label="mse = 0.0\nsamples = 1\nvalue = 3.0"] ;
97 -> 98 ;
99 [label="O3_measured <= 1126.5\nmse = 0.0\nsamples = 27\nvalue = 3.097"] ;
97 -> 99 ;
100 [label="mse = 0.0\nsamples = 26\nvalue = 3.1"] ;
99 -> 100 ;
101 [label="mse = 0.0\nsamples = 1\nvalue = 3.0"] ;
99 -> 101 ;
102 [label="mse = 0.0\nsamples = 8\nvalue = 3.2"] ;
96 -> 102 ;
103 [label="NMHC_measured <= 673.5\nmse = 0.002\nsamples = 41\nvalue = 3.357"] ;
95 -> 103 ;
104 [label="mse = 0.0\nsamples = 19\nvalue = 3.3"] ;
103 -> 104 ;
105 [label="mse = -0.0\nsamples = 22\nvalue = 3.4"] ;
103 -> 105 ;
106 [label="NMHC_measured <= 755.5\nmse = 0.712\nsamples = 457\nvalue = 4.819"] ;
2 -> 106 ;
107 [label="NMHC_measured <= 713.5\nmse = 0.165\nsamples = 233\nvalue = 4.094"] ;
106 -> 107 ;
108 [label="NMHC_measured <= 696.5\nmse = 0.029\nsamples = 120\nvalue = 3.717"] ;
107 -> 108 ;
109 [label="NMHC_measured <= 685.5\nmse = 0.006\nsamples = 68\nvalue = 3.585"] ;
108 -> 109 ;
110 [label="O3_measured <= 1031.5\nmse = 0.0\nsamples = 24\nvalue = 3.503"] ;
109 -> 110 ;
111 [label="mse = 0.0\nsamples = 22\nvalue = 3.5"] ;
110 -> 111 ;
112 [label="O3_measured <= 1120.0\nmse = 0.002\nsamples = 2\nvalue = 3.52"] ;
110 -> 112 ;
113 [label="mse = 0.0\nsamples = 1\nvalue = 3.6"] ;
112 -> 113 ;
114 [label="mse = -0.0\nsamples = 1\nvalue = 3.5"] ;
112 -> 114 ;
115 [label="NMHC_measured <= 690.5\nmse = 0.002\nsamples = 44\nvalue = 3.634"] ;
109 -> 115 ;
116 [label="mse = 0.0\nsamples = 27\nvalue = 3.6"] ;
115 -> 116 ;
117 [label="O3_measured <= 826.5\nmse = 0.0\nsamples = 17\nvalue = 3.695"] ;
115 -> 117 ;
118 [label="mse = -0.0\nsamples = 14\nvalue = 3.7"] ;
117 -> 118 ;
119 [label="NOx_measured <= 884.0\nmse = 0.002\nsamples = 3\nvalue = 3.667"] ;
117 -> 119 ;
120 [label="mse = 0.0\nsamples = 1\nvalue = 3.6"] ;
119 -> 120 ;
121 [label="mse = 0.0\nsamples = 2\nvalue = 3.7"] ;
119 -> 121 ;
122 [label="NMHC_measured <= 702.5\nmse = 0.007\nsamples = 52\nvalue = 3.891"] ;
108 -> 122 ;
123 [label="mse = 0.0\nsamples = 21\nvalue = 3.8"] ;
122 -> 123 ;
124 [label="NMHC_measured <= 708.5\nmse = 0.002\nsamples = 31\nvalue = 3.948"] ;
122 -> 124 ;
125 [label="mse = -0.0\nsamples = 17\nvalue = 3.9"] ;
124 -> 125 ;
126 [label="mse = 0.0\nsamples = 14\nvalue = 4.0"] ;
124 -> 126 ;
127 [label="NMHC_measured <= 734.5\nmse = 0.045\nsamples = 113\nvalue = 4.432"] ;
107 -> 127 ;
128 [label="NMHC_measured <= 724.0\nmse = 0.01\nsamples = 57\nvalue = 4.255"] ;
127 -> 128 ;
129 [label="NMHC_measured <= 718.5\nmse = 0.002\nsamples = 22\nvalue = 4.145"] ;
128 -> 129 ;
130 [label="mse = 0.0\nsamples = 12\nvalue = 4.1"] ;
129 -> 130 ;
131 [label="mse = -0.0\nsamples = 10\nvalue = 4.2"] ;
129 -> 131 ;
132 [label="NMHC_measured <= 730.5\nmse = 0.002\nsamples = 35\nvalue = 4.329"] ;
128 -> 132 ;
133 [label="CO_measured <= 1094.5\nmse = 0.0\nsamples = 26\nvalue = 4.302"] ;
132 -> 133 ;
134 [label="mse = -0.0\nsamples = 24\nvalue = 4.3"] ;
133 -> 134 ;
135 [label="AH <= 1.057\nmse = 0.002\nsamples = 2\nvalue = 4.333"] ;
133 -> 135 ;
136 [label="mse = 0.0\nsamples = 1\nvalue = 4.4"] ;
135 -> 136 ;
137 [label="mse = 0.0\nsamples = 1\nvalue = 4.3"] ;
135 -> 137 ;
138 [label="mse = -0.0\nsamples = 9\nvalue = 4.4"] ;
132 -> 138 ;
139 [label="NMHC_measured <= 745.5\nmse = 0.015\nsamples = 56\nvalue = 4.618"] ;
127 -> 139 ;
140 [label="NMHC_measured <= 740.5\nmse = 0.003\nsamples = 33\nvalue = 4.533"] ;
139 -> 140 ;
141 [label="NMHC_measured <= 735.5\nmse = 0.001\nsamples = 22\nvalue = 4.492"] ;
140 -> 141 ;
142 [label="NO2_measured <= 947.5\nmse = 0.003\nsamples = 3\nvalue = 4.45"] ;
141 -> 142 ;
143 [label="mse = 0.0\nsamples = 1\nvalue = 4.4"] ;
142 -> 143 ;
144 [label="mse = -0.0\nsamples = 2\nvalue = 4.5"] ;
142 -> 144 ;
145 [label="mse = 0.0\nsamples = 19\nvalue = 4.5"] ;
141 -> 145 ;
146 [label="mse = 0.0\nsamples = 11\nvalue = 4.6"] ;
140 -> 146 ;
147 [label="NMHC_measured <= 750.5\nmse = 0.003\nsamples = 23\nvalue = 4.751"] ;
139 -> 147 ;
148 [label="NMHC_measured <= 746.5\nmse = 0.001\nsamples = 12\nvalue = 4.694"] ;
147 -> 148 ;
149 [label="NOx_measured <= 798.0\nmse = 0.002\nsamples = 2\nvalue = 4.667"] ;
148 -> 149 ;
150 [label="mse = 0.0\nsamples = 1\nvalue = 4.7"] ;
149 -> 150 ;
151 [label="mse = 0.0\nsamples = 1\nvalue = 4.6"] ;
149 -> 151 ;
152 [label="mse = -0.0\nsamples = 10\nvalue = 4.7"] ;
148 -> 152 ;
153 [label="mse = 0.0\nsamples = 11\nvalue = 4.8"] ;
147 -> 153 ;
154 [label="NMHC_measured <= 790.5\nmse = 0.181\nsamples = 224\nvalue = 5.562"] ;
106 -> 154 ;
155 [label="NMHC_measured <= 770.5\nmse = 0.037\nsamples = 111\nvalue = 5.199"] ;
154 -> 155 ;
156 [label="NMHC_measured <= 760.5\nmse = 0.006\nsamples = 41\nvalue = 4.982"] ;
155 -> 156 ;
157 [label="O3_measured <= 1215.0\nmse = 0.0\nsamples = 15\nvalue = 4.896"] ;
156 -> 157 ;
158 [label="mse = -0.0\nsamples = 14\nvalue = 4.9"] ;
157 -> 158 ;
159 [label="mse = 0.0\nsamples = 1\nvalue = 4.8"] ;
157 -> 159 ;
160 [label="NMHC_measured <= 766.5\nmse = 0.003\nsamples = 26\nvalue = 5.027"] ;
156 -> 160 ;
161 [label="RH <= 74.45\nmse = 0.001\nsamples = 19\nvalue = 5.0"] ;
160 -> 161 ;
162 [label="RH <= 24.15\nmse = 0.001\nsamples = 18\nvalue = 4.994"] ;
161 -> 162 ;
163 [label="mse = 0.0\nsamples = 2\nvalue = 4.9"] ;
162 -> 163 ;
164 [label="mse = 0.0\nsamples = 16\nvalue = 5.0"] ;
162 -> 164 ;
165 [label="mse = 0.0\nsamples = 1\nvalue = 5.1"] ;
161 -> 165 ;
166 [label="mse = 0.0\nsamples = 7\nvalue = 5.1"] ;
160 -> 166 ;
167 [label="NMHC_measured <= 780.5\nmse = 0.011\nsamples = 70\nvalue = 5.329"] ;
155 -> 167 ;
168 [label="NMHC_measured <= 775.5\nmse = 0.003\nsamples = 33\nvalue = 5.248"] ;
167 -> 168 ;
169 [label="O3_measured <= 1173.5\nmse = 0.001\nsamples = 16\nvalue = 5.193"] ;
168 -> 169 ;
170 [label="mse = -0.0\nsamples = 13\nvalue = 5.2"] ;
169 -> 170 ;
171 [label="O3_measured <= 1203.0\nmse = 0.003\nsamples = 3\nvalue = 5.15"] ;
169 -> 171 ;
172 [label="mse = 0.0\nsamples = 1\nvalue = 5.1"] ;
171 -> 172 ;
173 [label="mse = 0.0\nsamples = 2\nvalue = 5.2"] ;
171 -> 173 ;
174 [label="RH <= 71.05\nmse = 0.001\nsamples = 17\nvalue = 5.294"] ;
168 -> 174 ;
175 [label="mse = 0.0\nsamples = 16\nvalue = 5.3"] ;
174 -> 175 ;
176 [label="mse = -0.0\nsamples = 1\nvalue = 5.2"] ;
174 -> 176 ;
177 [label="NMHC_measured <= 785.5\nmse = 0.003\nsamples = 37\nvalue = 5.429"] ;
167 -> 177 ;
178 [label="CO_measured <= 949.0\nmse = 0.001\nsamples = 22\nvalue = 5.391"] ;
177 -> 178 ;
179 [label="temp <= 4.3\nmse = 0.002\nsamples = 3\nvalue = 5.325"] ;
178 -> 179 ;
180 [label="mse = 0.0\nsamples = 1\nvalue = 5.4"] ;
179 -> 180 ;
181 [label="mse = 0.0\nsamples = 2\nvalue = 5.3"] ;
179 -> 181 ;
182 [label="mse = -0.0\nsamples = 19\nvalue = 5.4"] ;
178 -> 182 ;
183 [label="NOx_measured <= 982.5\nmse = 0.0\nsamples = 15\nvalue = 5.495"] ;
177 -> 183 ;
184 [label="mse = 0.0\nsamples = 14\nvalue = 5.5"] ;
183 -> 184 ;
185 [label="mse = 0.0\nsamples = 1\nvalue = 5.4"] ;
183 -> 185 ;
186 [label="NMHC_measured <= 809.5\nmse = 0.054\nsamples = 113\nvalue = 5.936"] ;
154 -> 186 ;
187 [label="NMHC_measured <= 800.5\nmse = 0.013\nsamples = 60\nvalue = 5.735"] ;
186 -> 187 ;
188 [label="NMHC_measured <= 795.5\nmse = 0.003\nsamples = 34\nvalue = 5.655"] ;
187 -> 188 ;
189 [label="mse = -0.0\nsamples = 18\nvalue = 5.6"] ;
188 -> 189 ;
190 [label="O3_measured <= 822.0\nmse = 0.001\nsamples = 16\nvalue = 5.707"] ;
188 -> 190 ;
191 [label="NOx_measured <= 705.5\nmse = 0.002\nsamples = 5\nvalue = 5.733"] ;
190 -> 191 ;
192 [label="mse = 0.0\nsamples = 2\nvalue = 5.8"] ;
191 -> 192 ;
193 [label="mse = 0.0\nsamples = 3\nvalue = 5.7"] ;
191 -> 193 ;
194 [label="mse = 0.0\nsamples = 11\nvalue = 5.7"] ;
190 -> 194 ;
195 [label="NMHC_measured <= 805.5\nmse = 0.002\nsamples = 26\nvalue = 5.858"] ;
187 -> 195 ;
196 [label="NOx_measured <= 730.0\nmse = 0.001\nsamples = 13\nvalue = 5.812"] ;
195 -> 196 ;
197 [label="RH <= 57.95\nmse = 0.002\nsamples = 2\nvalue = 5.867"] ;
196 -> 197 ;
198 [label="mse = 0.0\nsamples = 1\nvalue = 5.9"] ;
197 -> 198 ;
199 [label="mse = -0.0\nsamples = 1\nvalue = 5.8"] ;
197 -> 199 ;
200 [label="mse = 0.0\nsamples = 11\nvalue = 5.8"] ;
196 -> 200 ;
201 [label="mse = -0.0\nsamples = 13\nvalue = 5.9"] ;
195 -> 201 ;
202 [label="NMHC_measured <= 818.5\nmse = 0.011\nsamples = 53\nvalue = 6.148"] ;
186 -> 202 ;
203 [label="NMHC_measured <= 813.5\nmse = 0.002\nsamples = 28\nvalue = 6.059"] ;
202 -> 203 ;
204 [label="mse = 0.0\nsamples = 13\nvalue = 6.0"] ;
203 -> 204 ;
205 [label="NMHC_measured <= 814.5\nmse = 0.0\nsamples = 15\nvalue = 6.096"] ;
203 -> 205 ;
206 [label="CO_measured <= 1016.5\nmse = 0.002\nsamples = 2\nvalue = 6.067"] ;
205 -> 206 ;
207 [label="mse = 0.0\nsamples = 1\nvalue = 6.1"] ;
206 -> 207 ;
208 [label="mse = 0.0\nsamples = 1\nvalue = 6.0"] ;
206 -> 208 ;
209 [label="mse = 0.0\nsamples = 13\nvalue = 6.1"] ;
205 -> 209 ;
210 [label="NMHC_measured <= 823.5\nmse = 0.002\nsamples = 25\nvalue = 6.24"] ;
202 -> 210 ;
211 [label="mse = 0.0\nsamples = 14\nvalue = 6.2"] ;
210 -> 211 ;
212 [label="mse = -0.0\nsamples = 11\nvalue = 6.3"] ;
210 -> 212 ;
213 [label="NMHC_measured <= 939.077\nmse = 2.685\nsamples = 720\nvalue = 9.189"] ;
1 -> 213 ;
214 [label="NMHC_measured <= 880.5\nmse = 0.539\nsamples = 311\nvalue = 7.568"] ;
213 -> 214 ;
215 [label="NMHC_measured <= 854.5\nmse = 0.114\nsamples = 156\nvalue = 6.934"] ;
214 -> 215 ;
216 [label="NMHC_measured <= 841.5\nmse = 0.028\nsamples = 82\nvalue = 6.643"] ;
215 -> 216 ;
217 [label="NMHC_measured <= 832.5\nmse = 0.009\nsamples = 41\nvalue = 6.508"] ;
216 -> 217 ;
218 [label="temp <= 14.4\nmse = 0.001\nsamples = 15\nvalue = 6.391"] ;
217 -> 218 ;
219 [label="mse = 0.0\nsamples = 12\nvalue = 6.4"] ;
218 -> 219 ;
220 [label="AH <= 1.28\nmse = 0.002\nsamples = 3\nvalue = 6.333"] ;
218 -> 220 ;
221 [label="mse = 0.0\nsamples = 2\nvalue = 6.3"] ;
220 -> 221 ;
222 [label="mse = 0.0\nsamples = 1\nvalue = 6.4"] ;
220 -> 222 ;
223 [label="NMHC_measured <= 836.5\nmse = 0.002\nsamples = 26\nvalue = 6.573"] ;
217 -> 223 ;
224 [label="mse = 0.0\nsamples = 7\nvalue = 6.5"] ;
223 -> 224 ;
225 [label="O3_measured <= 1201.5\nmse = 0.0\nsamples = 19\nvalue = 6.597"] ;
223 -> 225 ;
226 [label="mse = 0.0\nsamples = 16\nvalue = 6.6"] ;
225 -> 226 ;
227 [label="RH <= 52.95\nmse = 0.002\nsamples = 3\nvalue = 6.567"] ;
225 -> 227 ;
228 [label="mse = 0.0\nsamples = 1\nvalue = 6.5"] ;
227 -> 228 ;
229 [label="mse = 0.0\nsamples = 2\nvalue = 6.6"] ;
227 -> 229 ;
230 [label="NMHC_measured <= 845.5\nmse = 0.007\nsamples = 41\nvalue = 6.791"] ;
216 -> 230 ;
231 [label="mse = 0.0\nsamples = 15\nvalue = 6.7"] ;
230 -> 231 ;
232 [label="NMHC_measured <= 850.5\nmse = 0.002\nsamples = 26\nvalue = 6.851"] ;
230 -> 232 ;
233 [label="mse = 0.0\nsamples = 11\nvalue = 6.8"] ;
232 -> 233 ;
234 [label="mse = -0.0\nsamples = 15\nvalue = 6.9"] ;
232 -> 234 ;
235 [label="NMHC_measured <= 867.5\nmse = 0.034\nsamples = 74\nvalue = 7.22"] ;
215 -> 235 ;
236 [label="NMHC_measured <= 859.5\nmse = 0.008\nsamples = 41\nvalue = 7.08"] ;
235 -> 236 ;
237 [label="NOx_measured <= 1702.0\nmse = 0.002\nsamples = 19\nvalue = 7.0"] ;
236 -> 237 ;
238 [label="NMHC_measured <= 855.5\nmse = 0.001\nsamples = 18\nvalue = 6.991"] ;
237 -> 238 ;
239 [label="CO_measured <= 1083.0\nmse = 0.002\nsamples = 4\nvalue = 6.94"] ;
238 -> 239 ;
240 [label="mse = -0.0\nsamples = 2\nvalue = 6.9"] ;
239 -> 240 ;
241 [label="mse = 0.0\nsamples = 2\nvalue = 7.0"] ;
239 -> 241 ;
242 [label="mse = 0.0\nsamples = 14\nvalue = 7.0"] ;
238 -> 242 ;
243 [label="mse = 0.0\nsamples = 1\nvalue = 7.1"] ;
237 -> 243 ;
244 [label="NMHC_measured <= 863.5\nmse = 0.002\nsamples = 22\nvalue = 7.158"] ;
236 -> 244 ;
245 [label="mse = -0.0\nsamples = 10\nvalue = 7.1"] ;
244 -> 245 ;
246 [label="mse = 0.0\nsamples = 12\nvalue = 7.2"] ;
244 -> 246 ;
247 [label="NMHC_measured <= 875.5\nmse = 0.007\nsamples = 33\nvalue = 7.408"] ;
235 -> 247 ;
248 [label="NMHC_measured <= 871.5\nmse = 0.002\nsamples = 22\nvalue = 7.35"] ;
247 -> 248 ;
249 [label="mse = 0.0\nsamples = 12\nvalue = 7.3"] ;
248 -> 249 ;
250 [label="mse = -0.0\nsamples = 10\nvalue = 7.4"] ;
248 -> 250 ;
251 [label="NMHC_measured <= 876.5\nmse = 0.0\nsamples = 11\nvalue = 7.495"] ;
247 -> 251 ;
252 [label="CO_measured <= 1075.5\nmse = 0.002\nsamples = 2\nvalue = 7.467"] ;
251 -> 252 ;
253 [label="mse = 0.0\nsamples = 1\nvalue = 7.4"] ;
252 -> 253 ;
254 [label="mse = 0.0\nsamples = 1\nvalue = 7.5"] ;
252 -> 254 ;
255 [label="mse = 0.0\nsamples = 9\nvalue = 7.5"] ;
251 -> 255 ;
256 [label="NMHC_measured <= 905.5\nmse = 0.166\nsamples = 155\nvalue = 8.196"] ;
214 -> 256 ;
257 [label="NMHC_measured <= 892.5\nmse = 0.031\nsamples = 69\nvalue = 7.813"] ;
256 -> 257 ;
258 [label="NMHC_measured <= 884.5\nmse = 0.005\nsamples = 41\nvalue = 7.677"] ;
257 -> 258 ;
259 [label="mse = 0.0\nsamples = 19\nvalue = 7.6"] ;
258 -> 259 ;
260 [label="NMHC_measured <= 888.5\nmse = 0.002\nsamples = 22\nvalue = 7.726"] ;
258 -> 260 ;
261 [label="mse = 0.0\nsamples = 14\nvalue = 7.7"] ;
260 -> 261 ;
262 [label="RH <= 64.05\nmse = 0.001\nsamples = 8\nvalue = 7.791"] ;
260 -> 262 ;
263 [label="mse = 0.0\nsamples = 6\nvalue = 7.8"] ;
262 -> 263 ;
264 [label="O3_measured <= 1092.0\nmse = 0.002\nsamples = 2\nvalue = 7.75"] ;
262 -> 264 ;
265 [label="mse = 0.0\nsamples = 1\nvalue = 7.8"] ;
264 -> 265 ;
266 [label="mse = -0.0\nsamples = 1\nvalue = 7.7"] ;
264 -> 266 ;
267 [label="NMHC_measured <= 897.5\nmse = 0.008\nsamples = 28\nvalue = 7.992"] ;
257 -> 267 ;
268 [label="mse = 0.0\nsamples = 10\nvalue = 7.9"] ;
267 -> 268 ;
269 [label="NMHC_measured <= 900.5\nmse = 0.002\nsamples = 18\nvalue = 8.067"] ;
267 -> 269 ;
270 [label="mse = 0.0\nsamples = 4\nvalue = 8.0"] ;
269 -> 270 ;
271 [label="RH <= 74.3\nmse = 0.0\nsamples = 14\nvalue = 8.095"] ;
269 -> 271 ;
272 [label="mse = 0.0\nsamples = 11\nvalue = 8.1"] ;
271 -> 272 ;
273 [label="AH <= 0.782\nmse = 0.002\nsamples = 3\nvalue = 8.075"] ;
271 -> 273 ;
274 [label="mse = 0.0\nsamples = 2\nvalue = 8.1"] ;
273 -> 274 ;
275 [label="mse = 0.0\nsamples = 1\nvalue = 8.0"] ;
273 -> 275 ;
276 [label="NMHC_measured <= 921.5\nmse = 0.054\nsamples = 86\nvalue = 8.517"] ;
256 -> 276 ;
277 [label="NMHC_measured <= 913.0\nmse = 0.012\nsamples = 45\nvalue = 8.339"] ;
276 -> 277 ;
278 [label="NMHC_measured <= 909.5\nmse = 0.002\nsamples = 21\nvalue = 8.233"] ;
277 -> 278 ;
279 [label="mse = 0.0\nsamples = 13\nvalue = 8.2"] ;
278 -> 279 ;
280 [label="mse = -0.0\nsamples = 8\nvalue = 8.3"] ;
278 -> 280 ;
281 [label="NMHC_measured <= 917.5\nmse = 0.002\nsamples = 24\nvalue = 8.432"] ;
277 -> 281 ;
282 [label="mse = -0.0\nsamples = 16\nvalue = 8.4"] ;
281 -> 282 ;
283 [label="RH <= 31.75\nmse = 0.001\nsamples = 8\nvalue = 8.493"] ;
281 -> 283 ;
284 [label="temp <= 12.45\nmse = 0.003\nsamples = 2\nvalue = 8.45"] ;
283 -> 284 ;
285 [label="mse = 0.0\nsamples = 1\nvalue = 8.4"] ;
284 -> 285 ;
286 [label="mse = 0.0\nsamples = 1\nvalue = 8.5"] ;
284 -> 286 ;
287 [label="mse = 0.0\nsamples = 6\nvalue = 8.5"] ;
283 -> 287 ;
288 [label="NMHC_measured <= 929.0\nmse = 0.013\nsamples = 41\nvalue = 8.753"] ;
276 -> 288 ;
289 [label="NMHC_measured <= 925.5\nmse = 0.002\nsamples = 19\nvalue = 8.654"] ;
288 -> 289 ;
290 [label="mse = 0.0\nsamples = 8\nvalue = 8.6"] ;
289 -> 290 ;
291 [label="NO2_measured <= 1308.5\nmse = 0.001\nsamples = 11\nvalue = 8.694"] ;
289 -> 291 ;
292 [label="mse = 0.0\nsamples = 10\nvalue = 8.7"] ;
291 -> 292 ;
293 [label="mse = 0.0\nsamples = 1\nvalue = 8.6"] ;
291 -> 293 ;
294 [label="NMHC_measured <= 933.5\nmse = 0.004\nsamples = 22\nvalue = 8.847"] ;
288 -> 294 ;
295 [label="mse = 0.0\nsamples = 13\nvalue = 8.8"] ;
294 -> 295 ;
296 [label="NMHC_measured <= 936.5\nmse = 0.002\nsamples = 9\nvalue = 8.927"] ;
294 -> 296 ;
297 [label="mse = 0.0\nsamples = 6\nvalue = 8.9"] ;
296 -> 297 ;
298 [label="mse = 0.0\nsamples = 3\nvalue = 9.0"] ;
296 -> 298 ;
299 [label="NMHC_measured <= 1005.5\nmse = 0.703\nsamples = 409\nvalue = 10.456"] ;
213 -> 299 ;
300 [label="NMHC_measured <= 984.0\nmse = 0.138\nsamples = 286\nvalue = 9.974"] ;
299 -> 300 ;
301 [label="NO2_measured <= 1454.132\nmse = 0.109\nsamples = 235\nvalue = 9.885"] ;
300 -> 301 ;
302 [label="NMHC_measured <= 965.0\nmse = 0.122\nsamples = 96\nvalue = 9.581"] ;
301 -> 302 ;
303 [label="NMHC_measured <= 953.0\nmse = 0.042\nsamples = 51\nvalue = 9.324"] ;
302 -> 303 ;
304 [label="NMHC_measured <= 945.5\nmse = 0.01\nsamples = 33\nvalue = 9.153"] ;
303 -> 304 ;
305 [label="NMHC_measured <= 941.5\nmse = 0.003\nsamples = 16\nvalue = 9.068"] ;
304 -> 305 ;
306 [label="mse = 0.0\nsamples = 5\nvalue = 9.0"] ;
305 -> 306 ;
307 [label="AH <= 1.049\nmse = 0.001\nsamples = 11\nvalue = 9.107"] ;
305 -> 307 ;
308 [label="mse = 0.0\nsamples = 10\nvalue = 9.1"] ;
307 -> 308 ;
309 [label="mse = 0.0\nsamples = 1\nvalue = 9.2"] ;
307 -> 309 ;
310 [label="NMHC_measured <= 949.0\nmse = 0.002\nsamples = 17\nvalue = 9.235"] ;
304 -> 310 ;
311 [label="mse = 0.0\nsamples = 10\nvalue = 9.2"] ;
310 -> 311 ;
312 [label="mse = -0.0\nsamples = 7\nvalue = 9.3"] ;
310 -> 312 ;
313 [label="NMHC_measured <= 960.5\nmse = 0.005\nsamples = 18\nvalue = 9.526"] ;
303 -> 313 ;
314 [label="NMHC_measured <= 957.5\nmse = 0.002\nsamples = 9\nvalue = 9.472"] ;
313 -> 314 ;
315 [label="mse = 0.0\nsamples = 3\nvalue = 9.4"] ;
314 -> 315 ;
316 [label="mse = 0.0\nsamples = 6\nvalue = 9.5"] ;
314 -> 316 ;
317 [label="RH <= 15.1\nmse = 0.002\nsamples = 9\nvalue = 9.575"] ;
313 -> 317 ;
318 [label="mse = 0.0\nsamples = 1\nvalue = 9.5"] ;
317 -> 318 ;
319 [label="mse = 0.0\nsamples = 8\nvalue = 9.6"] ;
317 -> 319 ;
320 [label="NMHC_measured <= 971.5\nmse = 0.023\nsamples = 45\nvalue = 9.924"] ;
302 -> 320 ;
321 [label="NMHC_measured <= 969.0\nmse = 0.002\nsamples = 15\nvalue = 9.725"] ;
320 -> 321 ;
322 [label="mse = 0.0\nsamples = 11\nvalue = 9.7"] ;
321 -> 322 ;
323 [label="mse = -0.0\nsamples = 4\nvalue = 9.8"] ;
321 -> 323 ;
324 [label="NMHC_measured <= 979.5\nmse = 0.006\nsamples = 30\nvalue = 10.019"] ;
320 -> 324 ;
325 [label="NMHC_measured <= 975.5\nmse = 0.002\nsamples = 18\nvalue = 9.964"] ;
324 -> 325 ;
326 [label="mse = 0.0\nsamples = 7\nvalue = 9.9"] ;
325 -> 326 ;
327 [label="mse = 0.0\nsamples = 11\nvalue = 10.0"] ;
325 -> 327 ;
328 [label="mse = -0.0\nsamples = 12\nvalue = 10.1"] ;
324 -> 328 ;
329 [label="mse = 0.0\nsamples = 139\nvalue = 10.083"] ;
301 -> 329 ;
330 [label="NMHC_measured <= 994.5\nmse = 0.031\nsamples = 51\nvalue = 10.443"] ;
300 -> 330 ;
331 [label="NMHC_measured <= 990.5\nmse = 0.006\nsamples = 27\nvalue = 10.289"] ;
330 -> 331 ;
332 [label="NMHC_measured <= 986.5\nmse = 0.002\nsamples = 20\nvalue = 10.252"] ;
331 -> 332 ;
333 [label="mse = -0.0\nsamples = 7\nvalue = 10.2"] ;
332 -> 333 ;
334 [label="O3_measured <= 1031.5\nmse = 0.001\nsamples = 13\nvalue = 10.293"] ;
332 -> 334 ;
335 [label="mse = 0.0\nsamples = 1\nvalue = 10.2"] ;
334 -> 335 ;
336 [label="mse = -0.0\nsamples = 12\nvalue = 10.3"] ;
334 -> 336 ;
337 [label="mse = 0.0\nsamples = 7\nvalue = 10.4"] ;
331 -> 337 ;
338 [label="NMHC_measured <= 1001.5\nmse = 0.006\nsamples = 24\nvalue = 10.606"] ;
330 -> 338 ;
339 [label="NMHC_measured <= 997.5\nmse = 0.002\nsamples = 15\nvalue = 10.552"] ;
338 -> 339 ;
340 [label="mse = 0.0\nsamples = 7\nvalue = 10.5"] ;
339 -> 340 ;
341 [label="CO_measured <= 1267.5\nmse = 0.001\nsamples = 8\nvalue = 10.592"] ;
339 -> 341 ;
342 [label="mse = -0.0\nsamples = 6\nvalue = 10.6"] ;
341 -> 342 ;
343 [label="NOx_measured <= 575.0\nmse = 0.003\nsamples = 2\nvalue = 10.55"] ;
341 -> 343 ;
344 [label="mse = 0.0\nsamples = 1\nvalue = 10.6"] ;
343 -> 344 ;
345 [label="mse = -0.0\nsamples = 1\nvalue = 10.5"] ;
343 -> 345 ;
346 [label="AH <= 1.157\nmse = 0.001\nsamples = 9\nvalue = 10.692"] ;
338 -> 346 ;
347 [label="mse = 0.0\nsamples = 8\nvalue = 10.7"] ;
346 -> 347 ;
348 [label="mse = 0.0\nsamples = 1\nvalue = 10.6"] ;
346 -> 348 ;
349 [label="NMHC_measured <= 1038.0\nmse = 0.28\nsamples = 123\nvalue = 11.536"] ;
299 -> 349 ;
350 [label="NMHC_measured <= 1023.5\nmse = 0.061\nsamples = 79\nvalue = 11.188"] ;
349 -> 350 ;
351 [label="NMHC_measured <= 1015.5\nmse = 0.015\nsamples = 46\nvalue = 11.005"] ;
350 -> 351 ;
352 [label="NMHC_measured <= 1012.5\nmse = 0.005\nsamples = 29\nvalue = 10.918"] ;
351 -> 352 ;
353 [label="NMHC_measured <= 1008.5\nmse = 0.002\nsamples = 19\nvalue = 10.875"] ;
352 -> 353 ;
354 [label="mse = 0.0\nsamples = 5\nvalue = 10.8"] ;
353 -> 354 ;
355 [label="mse = -0.0\nsamples = 14\nvalue = 10.9"] ;
353 -> 355 ;
356 [label="RH <= 81.25\nmse = 0.001\nsamples = 10\nvalue = 10.994"] ;
352 -> 356 ;
357 [label="mse = 0.0\nsamples = 9\nvalue = 11.0"] ;
356 -> 357 ;
358 [label="mse = -0.0\nsamples = 1\nvalue = 10.9"] ;
356 -> 358 ;
359 [label="NMHC_measured <= 1019.5\nmse = 0.002\nsamples = 17\nvalue = 11.138"] ;
351 -> 359 ;
360 [label="mse = -0.0\nsamples = 10\nvalue = 11.1"] ;
359 -> 360 ;
361 [label="RH <= 70.55\nmse = 0.001\nsamples = 7\nvalue = 11.192"] ;
359 -> 361 ;
362 [label="mse = -0.0\nsamples = 6\nvalue = 11.2"] ;
361 -> 362 ;
363 [label="mse = 0.0\nsamples = 1\nvalue = 11.1"] ;
361 -> 363 ;
364 [label="NMHC_measured <= 1030.5\nmse = 0.012\nsamples = 33\nvalue = 11.449"] ;
350 -> 364 ;
365 [label="NMHC_measured <= 1026.5\nmse = 0.002\nsamples = 20\nvalue = 11.359"] ;
364 -> 365 ;
366 [label="mse = 0.0\nsamples = 9\nvalue = 11.3"] ;
365 -> 366 ;
367 [label="mse = 0.0\nsamples = 11\nvalue = 11.4"] ;
365 -> 367 ;
368 [label="NMHC_measured <= 1033.0\nmse = 0.002\nsamples = 13\nvalue = 11.55"] ;
364 -> 368 ;
369 [label="mse = 0.0\nsamples = 6\nvalue = 11.5"] ;
368 -> 369 ;
370 [label="mse = -0.0\nsamples = 7\nvalue = 11.6"] ;
368 -> 370 ;
371 [label="NMHC_measured <= 1055.0\nmse = 0.08\nsamples = 44\nvalue = 12.145"] ;
349 -> 371 ;
372 [label="NMHC_measured <= 1044.5\nmse = 0.013\nsamples = 22\nvalue = 11.864"] ;
371 -> 372 ;
373 [label="NMHC_measured <= 1040.5\nmse = 0.002\nsamples = 9\nvalue = 11.76"] ;
372 -> 373 ;
374 [label="mse = 0.0\nsamples = 3\nvalue = 11.7"] ;
373 -> 374 ;
375 [label="mse = -0.0\nsamples = 6\nvalue = 11.8"] ;
373 -> 375 ;
376 [label="NMHC_measured <= 1048.0\nmse = 0.005\nsamples = 13\nvalue = 11.95"] ;
372 -> 376 ;
377 [label="mse = -0.0\nsamples = 8\nvalue = 11.9"] ;
376 -> 377 ;
378 [label="NMHC_measured <= 1050.5\nmse = 0.002\nsamples = 5\nvalue = 12.029"] ;
376 -> 378 ;
379 [label="mse = 0.0\nsamples = 3\nvalue = 12.0"] ;
378 -> 379 ;
380 [label="mse = 0.0\nsamples = 2\nvalue = 12.1"] ;
378 -> 380 ;
381 [label="NMHC_measured <= 1062.5\nmse = 0.01\nsamples = 22\nvalue = 12.389"] ;
371 -> 381 ;
382 [label="NMHC_measured <= 1058.0\nmse = 0.002\nsamples = 9\nvalue = 12.271"] ;
381 -> 382 ;
383 [label="mse = 0.0\nsamples = 3\nvalue = 12.2"] ;
382 -> 383 ;
384 [label="mse = 0.0\nsamples = 6\nvalue = 12.3"] ;
382 -> 384 ;
385 [label="NMHC_measured <= 1065.5\nmse = 0.002\nsamples = 13\nvalue = 12.458"] ;
381 -> 385 ;
386 [label="mse = 0.0\nsamples = 8\nvalue = 12.4"] ;
385 -> 386 ;
387 [label="mse = 0.0\nsamples = 5\nvalue = 12.5"] ;
385 -> 387 ;
388 [label="NMHC_measured <= 1352.5\nmse = 35.999\nsamples = 504\nvalue = 19.166"] ;
0 -> 388 [labeldistance=2.5, labelangle=-45, headlabel="False"] ;
389 [label="NMHC_measured <= 1196.5\nmse = 6.112\nsamples = 389\nvalue = 16.325"] ;
388 -> 389 ;
390 [label="NMHC_measured <= 1131.0\nmse = 1.362\nsamples = 217\nvalue = 14.467"] ;
389 -> 390 ;
391 [label="NMHC_measured <= 1103.0\nmse = 0.312\nsamples = 107\nvalue = 13.407"] ;
390 -> 391 ;
392 [label="NMHC_measured <= 1085.5\nmse = 0.082\nsamples = 65\nvalue = 13.036"] ;
391 -> 392 ;
393 [label="NMHC_measured <= 1079.5\nmse = 0.018\nsamples = 36\nvalue = 12.816"] ;
392 -> 393 ;
394 [label="NMHC_measured <= 1075.5\nmse = 0.006\nsamples = 22\nvalue = 12.723"] ;
393 -> 394 ;
395 [label="NMHC_measured <= 1071.5\nmse = 0.002\nsamples = 14\nvalue = 12.658"] ;
394 -> 395 ;
396 [label="mse = 0.0\nsamples = 7\nvalue = 12.6"] ;
395 -> 396 ;
397 [label="mse = 0.0\nsamples = 7\nvalue = 12.7"] ;
395 -> 397 ;
398 [label="mse = 0.0\nsamples = 8\nvalue = 12.8"] ;
394 -> 398 ;
399 [label="NMHC_measured <= 1082.5\nmse = 0.002\nsamples = 14\nvalue = 12.957"] ;
393 -> 399 ;
400 [label="RH <= 78.3\nmse = 0.001\nsamples = 6\nvalue = 12.917"] ;
399 -> 400 ;
401 [label="mse = 0.0\nsamples = 5\nvalue = 12.9"] ;
400 -> 401 ;
402 [label="mse = -0.0\nsamples = 1\nvalue = 13.0"] ;
400 -> 402 ;
403 [label="mse = -0.0\nsamples = 8\nvalue = 13.0"] ;
399 -> 403 ;
404 [label="NMHC_measured <= 1095.0\nmse = 0.017\nsamples = 29\nvalue = 13.327"] ;
392 -> 404 ;
405 [label="NMHC_measured <= 1092.0\nmse = 0.006\nsamples = 16\nvalue = 13.222"] ;
404 -> 405 ;
406 [label="NMHC_measured <= 1089.0\nmse = 0.002\nsamples = 9\nvalue = 13.162"] ;
405 -> 406 ;
407 [label="mse = 0.0\nsamples = 4\nvalue = 13.1"] ;
406 -> 407 ;
408 [label="mse = 0.0\nsamples = 5\nvalue = 13.2"] ;
406 -> 408 ;
409 [label="mse = -0.0\nsamples = 7\nvalue = 13.3"] ;
405 -> 409 ;
410 [label="NMHC_measured <= 1100.0\nmse = 0.003\nsamples = 13\nvalue = 13.443"] ;
404 -> 410 ;
411 [label="CO_measured <= 1291.5\nmse = 0.001\nsamples = 9\nvalue = 13.407"] ;
410 -> 411 ;
412 [label="mse = -0.0\nsamples = 7\nvalue = 13.4"] ;
411 -> 412 ;
413 [label="CO_measured <= 1313.0\nmse = 0.002\nsamples = 2\nvalue = 13.45"] ;
411 -> 413 ;
414 [label="mse = 0.0\nsamples = 1\nvalue = 13.5"] ;
413 -> 414 ;
415 [label="mse = 0.0\nsamples = 1\nvalue = 13.4"] ;
413 -> 415 ;
416 [label="NO2_measured <= 1341.5\nmse = 0.001\nsamples = 4\nvalue = 13.514"] ;
410 -> 416 ;
417 [label="mse = 0.0\nsamples = 1\nvalue = 13.6"] ;
416 -> 417 ;
418 [label="mse = 0.0\nsamples = 3\nvalue = 13.5"] ;
416 -> 418 ;
419 [label="NMHC_measured <= 1117.5\nmse = 0.06\nsamples = 42\nvalue = 14.049"] ;
391 -> 419 ;
420 [label="NMHC_measured <= 1108.0\nmse = 0.018\nsamples = 17\nvalue = 13.8"] ;
419 -> 420 ;
421 [label="O3_measured <= 1387.0\nmse = 0.001\nsamples = 4\nvalue = 13.614"] ;
420 -> 421 ;
422 [label="mse = 0.0\nsamples = 1\nvalue = 13.7"] ;
421 -> 422 ;
423 [label="mse = -0.0\nsamples = 3\nvalue = 13.6"] ;
421 -> 423 ;
424 [label="NMHC_measured <= 1111.5\nmse = 0.005\nsamples = 13\nvalue = 13.872"] ;
420 -> 424 ;
425 [label="mse = 0.0\nsamples = 6\nvalue = 13.8"] ;
424 -> 425 ;
426 [label="RH <= 61.45\nmse = 0.003\nsamples = 7\nvalue = 13.918"] ;
424 -> 426 ;
427 [label="CO_measured <= 1160.0\nmse = 0.001\nsamples = 5\nvalue = 13.888"] ;
426 -> 427 ;
428 [label="mse = 0.0\nsamples = 1\nvalue = 13.8"] ;
427 -> 428 ;
429 [label="mse = -0.0\nsamples = 4\nvalue = 13.9"] ;
427 -> 429 ;
430 [label="mse = 0.0\nsamples = 2\nvalue = 14.0"] ;
426 -> 430 ;
431 [label="NMHC_measured <= 1124.5\nmse = 0.012\nsamples = 25\nvalue = 14.232"] ;
419 -> 431 ;
432 [label="NMHC_measured <= 1121.5\nmse = 0.005\nsamples = 15\nvalue = 14.144"] ;
431 -> 432 ;
433 [label="RH <= 64.2\nmse = 0.002\nsamples = 7\nvalue = 14.075"] ;
432 -> 433 ;
434 [label="mse = 0.0\nsamples = 5\nvalue = 14.1"] ;
433 -> 434 ;
435 [label="mse = -0.0\nsamples = 2\nvalue = 14.0"] ;
433 -> 435 ;
436 [label="mse = 0.0\nsamples = 8\nvalue = 14.2"] ;
432 -> 436 ;
437 [label="NMHC_measured <= 1127.5\nmse = 0.002\nsamples = 10\nvalue = 14.331"] ;
431 -> 437 ;
438 [label="mse = -0.0\nsamples = 5\nvalue = 14.3"] ;
437 -> 438 ;
439 [label="NO2_measured <= 1223.0\nmse = 0.001\nsamples = 5\nvalue = 14.383"] ;
437 -> 439 ;
440 [label="mse = 0.0\nsamples = 1\nvalue = 14.3"] ;
439 -> 440 ;
441 [label="mse = -0.0\nsamples = 4\nvalue = 14.4"] ;
439 -> 441 ;
442 [label="NMHC_measured <= 1162.0\nmse = 0.287\nsamples = 110\nvalue = 15.47"] ;
390 -> 442 ;
443 [label="NMHC_measured <= 1146.5\nmse = 0.074\nsamples = 48\nvalue = 14.994"] ;
442 -> 443 ;
444 [label="NMHC_measured <= 1139.0\nmse = 0.019\nsamples = 21\nvalue = 14.707"] ;
443 -> 444 ;
445 [label="NMHC_measured <= 1134.5\nmse = 0.006\nsamples = 9\nvalue = 14.567"] ;
444 -> 445 ;
446 [label="mse = -0.0\nsamples = 5\nvalue = 14.5"] ;
445 -> 446 ;
447 [label="NO2_measured <= 1516.5\nmse = 0.002\nsamples = 4\nvalue = 14.633"] ;
445 -> 447 ;
448 [label="mse = 0.0\nsamples = 3\nvalue = 14.6"] ;
447 -> 448 ;
449 [label="mse = 0.0\nsamples = 1\nvalue = 14.7"] ;
447 -> 449 ;
450 [label="NMHC_measured <= 1143.5\nmse = 0.007\nsamples = 12\nvalue = 14.8"] ;
444 -> 450 ;
451 [label="NMHC_measured <= 1141.5\nmse = 0.002\nsamples = 9\nvalue = 14.75"] ;
450 -> 451 ;
452 [label="NOx_measured <= 534.0\nmse = 0.001\nsamples = 5\nvalue = 14.714"] ;
451 -> 452 ;
453 [label="CO_measured <= 1385.0\nmse = 0.002\nsamples = 2\nvalue = 14.75"] ;
452 -> 453 ;
454 [label="mse = 0.0\nsamples = 1\nvalue = 14.8"] ;
453 -> 454 ;
455 [label="mse = 0.0\nsamples = 1\nvalue = 14.7"] ;
453 -> 455 ;
456 [label="mse = 0.0\nsamples = 3\nvalue = 14.7"] ;
452 -> 456 ;
457 [label="mse = 0.0\nsamples = 4\nvalue = 14.8"] ;
451 -> 457 ;
458 [label="mse = 0.0\nsamples = 3\nvalue = 14.9"] ;
450 -> 458 ;
459 [label="NMHC_measured <= 1154.0\nmse = 0.024\nsamples = 27\nvalue = 15.173"] ;
443 -> 459 ;
460 [label="NMHC_measured <= 1150.5\nmse = 0.003\nsamples = 16\nvalue = 15.036"] ;
459 -> 460 ;
461 [label="AH <= 1.039\nmse = 0.001\nsamples = 9\nvalue = 14.993"] ;
460 -> 461 ;
462 [label="mse = 0.0\nsamples = 8\nvalue = 15.0"] ;
461 -> 462 ;
463 [label="mse = 0.0\nsamples = 1\nvalue = 14.9"] ;
461 -> 463 ;
464 [label="mse = 0.0\nsamples = 7\nvalue = 15.1"] ;
460 -> 464 ;
465 [label="NMHC_measured <= 1159.5\nmse = 0.005\nsamples = 11\nvalue = 15.322"] ;
459 -> 465 ;
466 [label="NMHC_measured <= 1156.5\nmse = 0.002\nsamples = 6\nvalue = 15.271"] ;
465 -> 466 ;
467 [label="mse = -0.0\nsamples = 2\nvalue = 15.2"] ;
466 -> 467 ;
468 [label="mse = -0.0\nsamples = 4\nvalue = 15.3"] ;
466 -> 468 ;
469 [label="mse = -0.0\nsamples = 5\nvalue = 15.4"] ;
465 -> 469 ;
470 [label="NMHC_measured <= 1178.5\nmse = 0.112\nsamples = 62\nvalue = 15.874"] ;
442 -> 470 ;
471 [label="NMHC_measured <= 1168.5\nmse = 0.023\nsamples = 37\nvalue = 15.658"] ;
470 -> 471 ;
472 [label="NMHC_measured <= 1165.5\nmse = 0.002\nsamples = 18\nvalue = 15.536"] ;
471 -> 472 ;
473 [label="mse = 0.0\nsamples = 11\nvalue = 15.5"] ;
472 -> 473 ;
474 [label="mse = -0.0\nsamples = 7\nvalue = 15.6"] ;
472 -> 474 ;
475 [label="NMHC_measured <= 1176.0\nmse = 0.007\nsamples = 19\nvalue = 15.807"] ;
471 -> 475 ;
476 [label="NMHC_measured <= 1171.0\nmse = 0.002\nsamples = 13\nvalue = 15.756"] ;
475 -> 476 ;
477 [label="mse = -0.0\nsamples = 6\nvalue = 15.7"] ;
476 -> 477 ;
478 [label="mse = 0.0\nsamples = 7\nvalue = 15.8"] ;
476 -> 478 ;
479 [label="O3_measured <= 1694.5\nmse = 0.001\nsamples = 6\nvalue = 15.911"] ;
475 -> 479 ;
480 [label="mse = 0.0\nsamples = 5\nvalue = 15.9"] ;
479 -> 480 ;
481 [label="mse = 0.0\nsamples = 1\nvalue = 16.0"] ;
479 -> 481 ;
482 [label="NMHC_measured <= 1187.5\nmse = 0.03\nsamples = 25\nvalue = 16.278"] ;
470 -> 482 ;
483 [label="NMHC_measured <= 1180.5\nmse = 0.005\nsamples = 10\nvalue = 16.092"] ;
482 -> 483 ;
484 [label="mse = 0.0\nsamples = 3\nvalue = 16.0"] ;
483 -> 484 ;
485 [label="temp <= 12.2\nmse = 0.002\nsamples = 7\nvalue = 16.133"] ;
483 -> 485 ;
486 [label="mse = 0.0\nsamples = 3\nvalue = 16.2"] ;
485 -> 486 ;
487 [label="mse = -0.0\nsamples = 4\nvalue = 16.1"] ;
485 -> 487 ;
488 [label="NMHC_measured <= 1194.0\nmse = 0.007\nsamples = 15\nvalue = 16.405"] ;
482 -> 488 ;
489 [label="NMHC_measured <= 1190.5\nmse = 0.002\nsamples = 10\nvalue = 16.35"] ;
488 -> 489 ;
490 [label="mse = 0.0\nsamples = 5\nvalue = 16.3"] ;
489 -> 490 ;
491 [label="mse = -0.0\nsamples = 5\nvalue = 16.4"] ;
489 -> 491 ;
492 [label="mse = -0.0\nsamples = 5\nvalue = 16.5"] ;
488 -> 492 ;
493 [label="NMHC_measured <= 1272.5\nmse = 2.408\nsamples = 172\nvalue = 18.63"] ;
389 -> 493 ;
494 [label="NMHC_measured <= 1229.5\nmse = 0.508\nsamples = 111\nvalue = 17.643"] ;
493 -> 494 ;
495 [label="NMHC_measured <= 1214.0\nmse = 0.115\nsamples = 57\nvalue = 17.077"] ;
494 -> 495 ;
496 [label="NMHC_measured <= 1205.5\nmse = 0.021\nsamples = 31\nvalue = 16.811"] ;
495 -> 496 ;
497 [label="NMHC_measured <= 1202.5\nmse = 0.003\nsamples = 19\nvalue = 16.712"] ;
496 -> 497 ;
498 [label="NMHC_measured <= 1199.0\nmse = 0.001\nsamples = 13\nvalue = 16.684"] ;
497 -> 498 ;
499 [label="mse = 0.0\nsamples = 3\nvalue = 16.6"] ;
498 -> 499 ;
500 [label="mse = 0.0\nsamples = 10\nvalue = 16.7"] ;
498 -> 500 ;
501 [label="mse = -0.0\nsamples = 6\nvalue = 16.8"] ;
497 -> 501 ;
502 [label="NMHC_measured <= 1209.0\nmse = 0.007\nsamples = 12\nvalue = 16.975"] ;
496 -> 502 ;
503 [label="mse = 0.0\nsamples = 7\nvalue = 16.9"] ;
502 -> 503 ;
504 [label="NMHC_measured <= 1211.5\nmse = 0.002\nsamples = 5\nvalue = 17.05"] ;
502 -> 504 ;
505 [label="mse = 0.0\nsamples = 2\nvalue = 17.0"] ;
504 -> 505 ;
506 [label="mse = 0.0\nsamples = 3\nvalue = 17.1"] ;
504 -> 506 ;
507 [label="NMHC_measured <= 1223.5\nmse = 0.021\nsamples = 26\nvalue = 17.43"] ;
495 -> 507 ;
508 [label="NMHC_measured <= 1220.5\nmse = 0.004\nsamples = 14\nvalue = 17.305"] ;
507 -> 508 ;
509 [label="NMHC_measured <= 1217.0\nmse = 0.002\nsamples = 10\nvalue = 17.275"] ;
508 -> 509 ;
510 [label="mse = 0.0\nsamples = 4\nvalue = 17.2"] ;
509 -> 510 ;
511 [label="mse = 0.0\nsamples = 6\nvalue = 17.3"] ;
509 -> 511 ;
512 [label="mse = 0.0\nsamples = 4\nvalue = 17.4"] ;
508 -> 512 ;
513 [label="NMHC_measured <= 1227.0\nmse = 0.003\nsamples = 12\nvalue = 17.568"] ;
507 -> 513 ;
514 [label="mse = 0.0\nsamples = 5\nvalue = 17.5"] ;
513 -> 514 ;
515 [label="temp <= 8.15\nmse = 0.001\nsamples = 7\nvalue = 17.608"] ;
513 -> 515 ;
516 [label="mse = 0.0\nsamples = 1\nvalue = 17.7"] ;
515 -> 516 ;
517 [label="mse = -0.0\nsamples = 6\nvalue = 17.6"] ;
515 -> 517 ;
518 [label="NMHC_measured <= 1249.5\nmse = 0.18\nsamples = 54\nvalue = 18.284"] ;
494 -> 518 ;
519 [label="NMHC_measured <= 1238.5\nmse = 0.033\nsamples = 32\nvalue = 17.969"] ;
518 -> 519 ;
520 [label="NMHC_measured <= 1235.5\nmse = 0.006\nsamples = 15\nvalue = 17.812"] ;
519 -> 520 ;
521 [label="NMHC_measured <= 1232.0\nmse = 0.003\nsamples = 10\nvalue = 17.778"] ;
520 -> 521 ;
522 [label="mse = 0.0\nsamples = 2\nvalue = 17.7"] ;
521 -> 522 ;
523 [label="NMHC_measured <= 1234.5\nmse = 0.001\nsamples = 8\nvalue = 17.808"] ;
521 -> 523 ;
524 [label="mse = -0.0\nsamples = 6\nvalue = 17.8"] ;
523 -> 524 ;
525 [label="temp <= 17.0\nmse = 0.002\nsamples = 2\nvalue = 17.833"] ;
523 -> 525 ;
526 [label="mse = 0.0\nsamples = 1\nvalue = 17.9"] ;
525 -> 526 ;
527 [label="mse = 0.0\nsamples = 1\nvalue = 17.8"] ;
525 -> 527 ;
528 [label="RH <= 69.15\nmse = 0.001\nsamples = 5\nvalue = 17.917"] ;
520 -> 528 ;
529 [label="mse = 0.0\nsamples = 4\nvalue = 17.9"] ;
528 -> 529 ;
530 [label="mse = 0.0\nsamples = 1\nvalue = 18.0"] ;
528 -> 530 ;
531 [label="NMHC_measured <= 1243.5\nmse = 0.012\nsamples = 17\nvalue = 18.125"] ;
519 -> 531 ;
532 [label="NMHC_measured <= 1240.0\nmse = 0.002\nsamples = 8\nvalue = 18.033"] ;
531 -> 532 ;
533 [label="mse = 0.0\nsamples = 5\nvalue = 18.0"] ;
532 -> 533 ;
534 [label="mse = 0.0\nsamples = 3\nvalue = 18.1"] ;
532 -> 534 ;
535 [label="NMHC_measured <= 1246.5\nmse = 0.005\nsamples = 9\nvalue = 18.217"] ;
531 -> 535 ;
536 [label="NO2_measured <= 1476.0\nmse = 0.002\nsamples = 5\nvalue = 18.175"] ;
535 -> 536 ;
537 [label="mse = 0.0\nsamples = 1\nvalue = 18.1"] ;
536 -> 537 ;
538 [label="mse = 0.0\nsamples = 4\nvalue = 18.2"] ;
536 -> 538 ;
539 [label="mse = -0.0\nsamples = 4\nvalue = 18.3"] ;
535 -> 539 ;
540 [label="NMHC_measured <= 1257.5\nmse = 0.047\nsamples = 22\nvalue = 18.729"] ;
518 -> 540 ;
541 [label="temp <= 16.0\nmse = 0.002\nsamples = 8\nvalue = 18.477"] ;
540 -> 541 ;
542 [label="mse = 0.0\nsamples = 6\nvalue = 18.5"] ;
541 -> 542 ;
543 [label="mse = -0.0\nsamples = 2\nvalue = 18.4"] ;
541 -> 543 ;
544 [label="NMHC_measured <= 1264.5\nmse = 0.012\nsamples = 14\nvalue = 18.886"] ;
540 -> 544 ;
545 [label="O3_measured <= 1423.0\nmse = 0.002\nsamples = 6\nvalue = 18.762"] ;
544 -> 545 ;
546 [label="mse = 0.0\nsamples = 1\nvalue = 18.7"] ;
545 -> 546 ;
547 [label="mse = 0.0\nsamples = 5\nvalue = 18.8"] ;
545 -> 547 ;
548 [label="NOx_measured <= 491.0\nmse = 0.002\nsamples = 8\nvalue = 18.962"] ;
544 -> 548 ;
549 [label="mse = 0.0\nsamples = 3\nvalue = 18.9"] ;
548 -> 549 ;
550 [label="mse = -0.0\nsamples = 5\nvalue = 19.0"] ;
548 -> 550 ;
551 [label="NMHC_measured <= 1316.5\nmse = 0.647\nsamples = 61\nvalue = 20.507"] ;
493 -> 551 ;
552 [label="NMHC_measured <= 1293.0\nmse = 0.156\nsamples = 32\nvalue = 19.892"] ;
551 -> 552 ;
553 [label="NMHC_measured <= 1285.0\nmse = 0.038\nsamples = 14\nvalue = 19.54"] ;
552 -> 553 ;
554 [label="NMHC_measured <= 1279.0\nmse = 0.006\nsamples = 8\nvalue = 19.35"] ;
553 -> 554 ;
555 [label="mse = 0.0\nsamples = 5\nvalue = 19.3"] ;
554 -> 555 ;
556 [label="NMHC_measured <= 1282.0\nmse = 0.002\nsamples = 3\nvalue = 19.45"] ;
554 -> 556 ;
557 [label="mse = 0.0\nsamples = 2\nvalue = 19.4"] ;
556 -> 557 ;
558 [label="mse = -0.0\nsamples = 1\nvalue = 19.5"] ;
556 -> 558 ;
559 [label="NO2_measured <= 1650.5\nmse = 0.003\nsamples = 6\nvalue = 19.715"] ;
553 -> 559 ;
560 [label="NMHC_measured <= 1287.0\nmse = 0.001\nsamples = 5\nvalue = 19.69"] ;
559 -> 560 ;
561 [label="mse = 0.0\nsamples = 1\nvalue = 19.6"] ;
560 -> 561 ;
562 [label="mse = -0.0\nsamples = 4\nvalue = 19.7"] ;
560 -> 562 ;
563 [label="mse = 0.0\nsamples = 1\nvalue = 19.8"] ;
559 -> 563 ;
564 [label="NMHC_measured <= 1303.0\nmse = 0.051\nsamples = 18\nvalue = 20.207"] ;
552 -> 564 ;
565 [label="NMHC_measured <= 1296.0\nmse = 0.008\nsamples = 10\nvalue = 20.041"] ;
564 -> 565 ;
566 [label="mse = 0.0\nsamples = 2\nvalue = 19.9"] ;
565 -> 566 ;
567 [label="O3_measured <= 1808.0\nmse = 0.003\nsamples = 8\nvalue = 20.085"] ;
565 -> 567 ;
568 [label="O3_measured <= 1515.0\nmse = 0.001\nsamples = 6\nvalue = 20.11"] ;
567 -> 568 ;
569 [label="mse = 0.0\nsamples = 1\nvalue = 20.2"] ;
568 -> 569 ;
570 [label="mse = 0.0\nsamples = 5\nvalue = 20.1"] ;
568 -> 570 ;
571 [label="mse = 0.0\nsamples = 2\nvalue = 20.0"] ;
567 -> 571 ;
572 [label="NMHC_measured <= 1309.5\nmse = 0.01\nsamples = 8\nvalue = 20.464"] ;
564 -> 572 ;
573 [label="CO_measured <= 1362.0\nmse = 0.002\nsamples = 3\nvalue = 20.35"] ;
572 -> 573 ;
574 [label="mse = 0.0\nsamples = 1\nvalue = 20.3"] ;
573 -> 574 ;
575 [label="mse = -0.0\nsamples = 2\nvalue = 20.4"] ;
573 -> 575 ;
576 [label="NOx_measured <= 504.5\nmse = 0.002\nsamples = 5\nvalue = 20.529"] ;
572 -> 576 ;
577 [label="mse = 0.0\nsamples = 3\nvalue = 20.5"] ;
576 -> 577 ;
578 [label="mse = 0.0\nsamples = 2\nvalue = 20.6"] ;
576 -> 578 ;
579 [label="NMHC_measured <= 1337.0\nmse = 0.105\nsamples = 29\nvalue = 21.341"] ;
551 -> 579 ;
580 [label="NMHC_measured <= 1329.0\nmse = 0.039\nsamples = 20\nvalue = 21.167"] ;
579 -> 580 ;
581 [label="NMHC_measured <= 1326.0\nmse = 0.013\nsamples = 11\nvalue = 21.0"] ;
580 -> 581 ;
582 [label="O3_measured <= 1738.0\nmse = 0.004\nsamples = 6\nvalue = 20.912"] ;
581 -> 582 ;
583 [label="O3_measured <= 1562.0\nmse = 0.002\nsamples = 5\nvalue = 20.929"] ;
582 -> 583 ;
584 [label="mse = 0.0\nsamples = 3\nvalue = 20.9"] ;
583 -> 584 ;
585 [label="mse = 0.0\nsamples = 2\nvalue = 21.0"] ;
583 -> 585 ;
586 [label="mse = -0.0\nsamples = 1\nvalue = 20.8"] ;
582 -> 586 ;
587 [label="O3_measured <= 1777.5\nmse = 0.001\nsamples = 5\nvalue = 21.117"] ;
581 -> 587 ;
588 [label="mse = 0.0\nsamples = 4\nvalue = 21.1"] ;
587 -> 588 ;
589 [label="mse = -0.0\nsamples = 1\nvalue = 21.2"] ;
587 -> 589 ;
590 [label="NMHC_measured <= 1333.5\nmse = 0.004\nsamples = 9\nvalue = 21.346"] ;
580 -> 590 ;
591 [label="NO2_measured <= 1440.5\nmse = 0.002\nsamples = 4\nvalue = 21.28"] ;
590 -> 591 ;
592 [label="mse = 0.0\nsamples = 1\nvalue = 21.2"] ;
591 -> 592 ;
593 [label="mse = 0.0\nsamples = 3\nvalue = 21.3"] ;
591 -> 593 ;
594 [label="AH <= 1.122\nmse = 0.001\nsamples = 5\nvalue = 21.388"] ;
590 -> 594 ;
595 [label="mse = 0.0\nsamples = 4\nvalue = 21.4"] ;
594 -> 595 ;
596 [label="mse = -0.0\nsamples = 1\nvalue = 21.3"] ;
594 -> 596 ;
597 [label="NMHC_measured <= 1343.5\nmse = 0.032\nsamples = 9\nvalue = 21.733"] ;
579 -> 597 ;
598 [label="NOx_measured <= 505.0\nmse = 0.002\nsamples = 5\nvalue = 21.567"] ;
597 -> 598 ;
599 [label="mse = 0.0\nsamples = 3\nvalue = 21.6"] ;
598 -> 599 ;
600 [label="mse = 0.0\nsamples = 2\nvalue = 21.5"] ;
598 -> 600 ;
601 [label="NMHC_measured <= 1348.0\nmse = 0.007\nsamples = 4\nvalue = 21.9"] ;
597 -> 601 ;
602 [label="mse = 0.0\nsamples = 2\nvalue = 21.8"] ;
601 -> 602 ;
603 [label="NMHC_measured <= 1350.5\nmse = 0.003\nsamples = 2\nvalue = 21.95"] ;
601 -> 603 ;
604 [label="mse = 0.0\nsamples = 1\nvalue = 21.9"] ;
603 -> 604 ;
605 [label="mse = -0.0\nsamples = 1\nvalue = 22.0"] ;
603 -> 605 ;
606 [label="NMHC_measured <= 1579.0\nmse = 28.306\nsamples = 115\nvalue = 27.744"] ;
388 -> 606 ;
607 [label="NMHC_measured <= 1452.5\nmse = 6.731\nsamples = 93\nvalue = 25.636"] ;
606 -> 607 ;
608 [label="NMHC_measured <= 1398.0\nmse = 0.93\nsamples = 50\nvalue = 23.549"] ;
607 -> 608 ;
609 [label="NMHC_measured <= 1377.5\nmse = 0.179\nsamples = 28\nvalue = 22.871"] ;
608 -> 609 ;
610 [label="NMHC_measured <= 1365.0\nmse = 0.063\nsamples = 17\nvalue = 22.603"] ;
609 -> 610 ;
611 [label="NMHC_measured <= 1355.5\nmse = 0.011\nsamples = 7\nvalue = 22.308"] ;
610 -> 611 ;
612 [label="mse = 0.0\nsamples = 1\nvalue = 22.1"] ;
611 -> 612 ;
613 [label="NMHC_measured <= 1361.0\nmse = 0.002\nsamples = 6\nvalue = 22.35"] ;
611 -> 613 ;
614 [label="mse = 0.0\nsamples = 3\nvalue = 22.3"] ;
613 -> 614 ;
615 [label="mse = 0.0\nsamples = 3\nvalue = 22.4"] ;
613 -> 615 ;
616 [label="NMHC_measured <= 1372.0\nmse = 0.015\nsamples = 10\nvalue = 22.771"] ;
610 -> 616 ;
617 [label="CO_measured <= 1412.0\nmse = 0.003\nsamples = 4\nvalue = 22.65"] ;
616 -> 617 ;
618 [label="mse = 0.0\nsamples = 1\nvalue = 22.6"] ;
617 -> 618 ;
619 [label="mse = 0.0\nsamples = 3\nvalue = 22.7"] ;
617 -> 619 ;
620 [label="CO_measured <= 1487.5\nmse = 0.001\nsamples = 6\nvalue = 22.882"] ;
616 -> 620 ;
621 [label="NO2_measured <= 1608.0\nmse = 0.002\nsamples = 3\nvalue = 22.833"] ;
620 -> 621 ;
622 [label="mse = 0.0\nsamples = 1\nvalue = 22.9"] ;
621 -> 622 ;
623 [label="mse = 0.0\nsamples = 2\nvalue = 22.8"] ;
621 -> 623 ;
624 [label="mse = -0.0\nsamples = 3\nvalue = 22.9"] ;
620 -> 624 ;
625 [label="NMHC_measured <= 1386.5\nmse = 0.038\nsamples = 11\nvalue = 23.337"] ;
609 -> 625 ;
626 [label="NMHC_measured <= 1381.5\nmse = 0.007\nsamples = 6\nvalue = 23.156"] ;
625 -> 626 ;
627 [label="mse = -0.0\nsamples = 3\nvalue = 23.1"] ;
626 -> 627 ;
628 [label="O3_measured <= 2105.0\nmse = 0.002\nsamples = 3\nvalue = 23.267"] ;
626 -> 628 ;
629 [label="mse = 0.0\nsamples = 2\nvalue = 23.3"] ;
628 -> 629 ;
630 [label="mse = -0.0\nsamples = 1\nvalue = 23.2"] ;
628 -> 630 ;
631 [label="NO2_measured <= 1840.5\nmse = 0.01\nsamples = 5\nvalue = 23.5"] ;
625 -> 631 ;
632 [label="RH <= 38.35\nmse = 0.002\nsamples = 3\nvalue = 23.443"] ;
631 -> 632 ;
633 [label="mse = 0.0\nsamples = 1\nvalue = 23.4"] ;
632 -> 633 ;
634 [label="mse = 0.0\nsamples = 2\nvalue = 23.5"] ;
632 -> 634 ;
635 [label="NMHC_measured <= 1395.5\nmse = 0.002\nsamples = 2\nvalue = 23.633"] ;
631 -> 635 ;
636 [label="mse = 0.0\nsamples = 1\nvalue = 23.6"] ;
635 -> 636 ;
637 [label="mse = -0.0\nsamples = 1\nvalue = 23.7"] ;
635 -> 637 ;
638 [label="NMHC_measured <= 1421.0\nmse = 0.346\nsamples = 22\nvalue = 24.557"] ;
608 -> 638 ;
639 [label="NMHC_measured <= 1410.5\nmse = 0.1\nsamples = 13\nvalue = 24.204"] ;
638 -> 639 ;
640 [label="NMHC_measured <= 1402.0\nmse = 0.013\nsamples = 7\nvalue = 23.917"] ;
639 -> 640 ;
641 [label="NMHC_measured <= 1400.0\nmse = 0.002\nsamples = 3\nvalue = 23.829"] ;
640 -> 641 ;
642 [label="mse = -0.0\nsamples = 2\nvalue = 23.8"] ;
641 -> 642 ;
643 [label="mse = -0.0\nsamples = 1\nvalue = 23.9"] ;
641 -> 643 ;
644 [label="NMHC_measured <= 1405.0\nmse = 0.002\nsamples = 4\nvalue = 24.04"] ;
640 -> 644 ;
645 [label="mse = 0.0\nsamples = 2\nvalue = 24.0"] ;
644 -> 645 ;
646 [label="mse = 0.0\nsamples = 2\nvalue = 24.1"] ;
644 -> 646 ;
647 [label="NMHC_measured <= 1418.5\nmse = 0.005\nsamples = 6\nvalue = 24.518"] ;
639 -> 647 ;
648 [label="NMHC_measured <= 1415.0\nmse = 0.002\nsamples = 4\nvalue = 24.471"] ;
647 -> 648 ;
649 [label="mse = 0.0\nsamples = 1\nvalue = 24.4"] ;
648 -> 649 ;
650 [label="mse = -0.0\nsamples = 3\nvalue = 24.5"] ;
648 -> 650 ;
651 [label="mse = 0.0\nsamples = 2\nvalue = 24.6"] ;
647 -> 651 ;
652 [label="NMHC_measured <= 1436.5\nmse = 0.122\nsamples = 9\nvalue = 25.233"] ;
638 -> 652 ;
653 [label="NMHC_measured <= 1427.5\nmse = 0.025\nsamples = 6\nvalue = 24.971"] ;
652 -> 653 ;
654 [label="mse = 0.0\nsamples = 2\nvalue = 24.8"] ;
653 -> 654 ;
655 [label="NMHC_measured <= 1433.0\nmse = 0.005\nsamples = 4\nvalue = 25.1"] ;
653 -> 655 ;
656 [label="temp <= 16.95\nmse = 0.002\nsamples = 3\nvalue = 25.067"] ;
655 -> 656 ;
657 [label="mse = 0.0\nsamples = 2\nvalue = 25.1"] ;
656 -> 657 ;
658 [label="mse = 0.0\nsamples = 1\nvalue = 25.0"] ;
656 -> 658 ;
659 [label="mse = 0.0\nsamples = 1\nvalue = 25.2"] ;
655 -> 659 ;
660 [label="NMHC_measured <= 1442.5\nmse = 0.028\nsamples = 3\nvalue = 25.6"] ;
652 -> 660 ;
661 [label="mse = 0.0\nsamples = 1\nvalue = 25.4"] ;
660 -> 661 ;
662 [label="AH <= 0.937\nmse = 0.002\nsamples = 2\nvalue = 25.733"] ;
660 -> 662 ;
663 [label="mse = 0.0\nsamples = 1\nvalue = 25.8"] ;
662 -> 663 ;
664 [label="mse = -0.0\nsamples = 1\nvalue = 25.7"] ;
662 -> 664 ;
665 [label="NMHC_measured <= 1520.5\nmse = 2.414\nsamples = 43\nvalue = 28.089"] ;
607 -> 665 ;
666 [label="NMHC_measured <= 1491.0\nmse = 0.524\nsamples = 27\nvalue = 27.087"] ;
665 -> 666 ;
667 [label="NMHC_measured <= 1472.0\nmse = 0.161\nsamples = 18\nvalue = 26.661"] ;
666 -> 667 ;
668 [label="NMHC_measured <= 1461.0\nmse = 0.03\nsamples = 11\nvalue = 26.322"] ;
667 -> 668 ;
669 [label="CO_measured <= 1572.0\nmse = 0.006\nsamples = 4\nvalue = 26.08"] ;
668 -> 669 ;
670 [label="NMHC_measured <= 1459.0\nmse = 0.002\nsamples = 3\nvalue = 26.133"] ;
669 -> 670 ;
671 [label="mse = 0.0\nsamples = 2\nvalue = 26.1"] ;
670 -> 671 ;
672 [label="mse = -0.0\nsamples = 1\nvalue = 26.2"] ;
670 -> 672 ;
673 [label="mse = 0.0\nsamples = 1\nvalue = 26.0"] ;
669 -> 673 ;
674 [label="NOx_measured <= 425.0\nmse = 0.007\nsamples = 7\nvalue = 26.415"] ;
668 -> 674 ;
675 [label="temp <= 11.7\nmse = 0.002\nsamples = 3\nvalue = 26.525"] ;
674 -> 675 ;
676 [label="mse = 0.0\nsamples = 1\nvalue = 26.6"] ;
675 -> 676 ;
677 [label="mse = 0.0\nsamples = 2\nvalue = 26.5"] ;
675 -> 677 ;
678 [label="temp <= 7.1\nmse = 0.002\nsamples = 4\nvalue = 26.367"] ;
674 -> 678 ;
679 [label="mse = 0.0\nsamples = 2\nvalue = 26.3"] ;
678 -> 679 ;
680 [label="mse = -0.0\nsamples = 2\nvalue = 26.4"] ;
678 -> 680 ;
681 [label="NOx_measured <= 425.5\nmse = 0.017\nsamples = 7\nvalue = 27.067"] ;
667 -> 681 ;
682 [label="O3_measured <= 2220.0\nmse = 0.009\nsamples = 3\nvalue = 26.933"] ;
681 -> 682 ;
683 [label="mse = 0.0\nsamples = 2\nvalue = 27.0"] ;
682 -> 683 ;
684 [label="mse = -0.0\nsamples = 1\nvalue = 26.8"] ;
682 -> 684 ;
685 [label="CO_measured <= 1624.0\nmse = 0.002\nsamples = 4\nvalue = 27.156"] ;
681 -> 685 ;
686 [label="mse = 0.0\nsamples = 3\nvalue = 27.2"] ;
685 -> 686 ;
687 [label="mse = 0.0\nsamples = 1\nvalue = 27.1"] ;
685 -> 687 ;
688 [label="NMHC_measured <= 1507.5\nmse = 0.039\nsamples = 9\nvalue = 28.027"] ;
666 -> 688 ;
689 [label="NMHC_measured <= 1500.0\nmse = 0.006\nsamples = 7\nvalue = 27.933"] ;
688 -> 689 ;
690 [label="mse = 0.0\nsamples = 2\nvalue = 27.8"] ;
689 -> 690 ;
691 [label="RH <= 70.0\nmse = 0.002\nsamples = 5\nvalue = 27.96"] ;
689 -> 691 ;
692 [label="mse = -0.0\nsamples = 3\nvalue = 28.0"] ;
691 -> 692 ;
693 [label="mse = -0.0\nsamples = 2\nvalue = 27.9"] ;
691 -> 693 ;
694 [label="mse = 0.0\nsamples = 2\nvalue = 28.4"] ;
688 -> 694 ;
695 [label="NMHC_measured <= 1552.0\nmse = 0.632\nsamples = 16\nvalue = 29.938"] ;
665 -> 695 ;
696 [label="NMHC_measured <= 1536.5\nmse = 0.06\nsamples = 9\nvalue = 29.185"] ;
695 -> 696 ;
697 [label="NMHC_measured <= 1529.0\nmse = 0.004\nsamples = 7\nvalue = 29.06"] ;
696 -> 697 ;
698 [label="mse = 0.0\nsamples = 3\nvalue = 29.0"] ;
697 -> 698 ;
699 [label="NO2_measured <= 1619.0\nmse = 0.002\nsamples = 4\nvalue = 29.12"] ;
697 -> 699 ;
700 [label="mse = 0.0\nsamples = 1\nvalue = 29.2"] ;
699 -> 700 ;
701 [label="mse = 0.0\nsamples = 3\nvalue = 29.1"] ;
699 -> 701 ;
702 [label="temp <= 13.75\nmse = 0.02\nsamples = 2\nvalue = 29.6"] ;
696 -> 702 ;
703 [label="mse = 0.0\nsamples = 1\nvalue = 29.5"] ;
702 -> 703 ;
704 [label="mse = 0.0\nsamples = 1\nvalue = 29.8"] ;
702 -> 704 ;
705 [label="NMHC_measured <= 1565.0\nmse = 0.068\nsamples = 7\nvalue = 30.692"] ;
695 -> 705 ;
706 [label="temp <= 13.2\nmse = 0.007\nsamples = 3\nvalue = 30.35"] ;
705 -> 706 ;
707 [label="mse = 0.0\nsamples = 2\nvalue = 30.3"] ;
706 -> 707 ;
708 [label="mse = 0.0\nsamples = 1\nvalue = 30.5"] ;
706 -> 708 ;
709 [label="NMHC_measured <= 1571.5\nmse = 0.02\nsamples = 4\nvalue = 30.844"] ;
705 -> 709 ;
710 [label="AH <= 1.204\nmse = 0.002\nsamples = 3\nvalue = 30.72"] ;
709 -> 710 ;
711 [label="mse = 0.0\nsamples = 2\nvalue = 30.7"] ;
710 -> 711 ;
712 [label="mse = 0.0\nsamples = 1\nvalue = 30.8"] ;
710 -> 712 ;
713 [label="mse = 0.0\nsamples = 1\nvalue = 31.0"] ;
709 -> 713 ;
714 [label="NMHC_measured <= 1844.5\nmse = 18.67\nsamples = 22\nvalue = 36.919"] ;
606 -> 714 ;
715 [label="NMHC_measured <= 1656.0\nmse = 3.265\nsamples = 19\nvalue = 35.744"] ;
714 -> 715 ;
716 [label="RH <= 43.35\nmse = 0.814\nsamples = 5\nvalue = 32.7"] ;
715 -> 716 ;
717 [label="NMHC_measured <= 1635.5\nmse = 0.036\nsamples = 2\nvalue = 33.633"] ;
716 -> 717 ;
718 [label="mse = 0.0\nsamples = 1\nvalue = 33.5"] ;
717 -> 718 ;
719 [label="mse = -0.0\nsamples = 1\nvalue = 33.9"] ;
717 -> 719 ;
720 [label="temp <= 11.45\nmse = 0.255\nsamples = 3\nvalue = 32.0"] ;
716 -> 720 ;
721 [label="mse = 0.0\nsamples = 1\nvalue = 31.5"] ;
720 -> 721 ;
722 [label="NO2_measured <= 2023.5\nmse = 0.01\nsamples = 2\nvalue = 32.5"] ;
720 -> 722 ;
723 [label="mse = 0.0\nsamples = 1\nvalue = 32.4"] ;
722 -> 723 ;
724 [label="mse = 0.0\nsamples = 1\nvalue = 32.6"] ;
722 -> 724 ;
725 [label="NMHC_measured <= 1705.5\nmse = 0.875\nsamples = 14\nvalue = 36.533"] ;
715 -> 725 ;
726 [label="NMHC_measured <= 1682.0\nmse = 0.149\nsamples = 10\nvalue = 35.928"] ;
725 -> 726 ;
727 [label="CO_measured <= 1811.0\nmse = 0.013\nsamples = 4\nvalue = 35.514"] ;
726 -> 727 ;
728 [label="RH <= 64.95\nmse = 0.002\nsamples = 2\nvalue = 35.633"] ;
727 -> 728 ;
729 [label="mse = 0.0\nsamples = 1\nvalue = 35.6"] ;
728 -> 729 ;
730 [label="mse = 0.0\nsamples = 1\nvalue = 35.7"] ;
728 -> 730 ;
731 [label="NOx_measured <= 350.5\nmse = 0.002\nsamples = 2\nvalue = 35.425"] ;
727 -> 731 ;
732 [label="mse = 0.0\nsamples = 1\nvalue = 35.5"] ;
731 -> 732 ;
733 [label="mse = 0.0\nsamples = 1\nvalue = 35.4"] ;
731 -> 733 ;
734 [label="NMHC_measured <= 1690.5\nmse = 0.057\nsamples = 6\nvalue = 36.191"] ;
726 -> 734 ;
735 [label="AH <= 0.629\nmse = 0.007\nsamples = 4\nvalue = 36.0"] ;
734 -> 735 ;
736 [label="mse = 0.0\nsamples = 1\nvalue = 36.1"] ;
735 -> 736 ;
737 [label="RH <= 51.35\nmse = 0.002\nsamples = 3\nvalue = 35.95"] ;
735 -> 737 ;
738 [label="mse = 0.0\nsamples = 1\nvalue = 35.9"] ;
737 -> 738 ;
739 [label="mse = -0.0\nsamples = 2\nvalue = 36.0"] ;
737 -> 739 ;
740 [label="temp <= 10.8\nmse = 0.022\nsamples = 2\nvalue = 36.42"] ;
734 -> 740 ;
741 [label="mse = 0.0\nsamples = 1\nvalue = 36.3"] ;
740 -> 741 ;
742 [label="mse = 0.0\nsamples = 1\nvalue = 36.6"] ;
740 -> 742 ;
743 [label="NOx_measured <= 358.0\nmse = 0.127\nsamples = 4\nvalue = 37.744"] ;
725 -> 743 ;
744 [label="mse = 0.0\nsamples = 1\nvalue = 38.1"] ;
743 -> 744 ;
745 [label="NO2_measured <= 1846.0\nmse = 0.046\nsamples = 3\nvalue = 37.46"] ;
743 -> 745 ;
746 [label="mse = 0.0\nsamples = 1\nvalue = 37.2"] ;
745 -> 746 ;
747 [label="O3_measured <= 2352.5\nmse = 0.002\nsamples = 2\nvalue = 37.633"] ;
745 -> 747 ;
748 [label="mse = 0.0\nsamples = 1\nvalue = 37.7"] ;
747 -> 748 ;
749 [label="mse = 0.0\nsamples = 1\nvalue = 37.6"] ;
747 -> 749 ;
750 [label="RH <= 75.45\nmse = 0.349\nsamples = 3\nvalue = 50.233"] ;
714 -> 750 ;
751 [label="AH <= 0.786\nmse = 0.003\nsamples = 2\nvalue = 50.65"] ;
750 -> 751 ;
752 [label="mse = 0.0\nsamples = 1\nvalue = 50.7"] ;
751 -> 752 ;
753 [label="mse = -0.0\nsamples = 1\nvalue = 50.6"] ;
751 -> 753 ;
754 [label="mse = -0.0\nsamples = 1\nvalue = 49.4"] ;
750 -> 754 ;
}